{"learner":{"attributes":{"scikit_learn":"{\"_estimator_type\": \"classifier\"}"},"feature_names":[],"feature_types":[],"gradient_booster":{"model":{"gbtree_model_param":{"num_parallel_tree":"1","num_trees":"60"},"iteration_indptr":[0,3,6,9,12,15,18,21,24,27,30,33,36,39,42,45,48,51,54,57,60],"tree_info":[0,1,2,0,1,2,0,1,2,0,1,2,0,1,2,0,1,2,0,1,2,0,1,2,0,1,2,0,1,2,0,1,2,0,1,2,0,1,2,0,1,2,0,1,2,0,1,2,0,1,2,0,1,2,0,1,2,0,1,2],"trees":[{"base_weights":[-5.564054E-1,1.2352941E0,-2.1794435E-1,-1.253312E-1,4.106596E-1],"categories":[],"categories_nodes":[],"categories_segments":[],"categories_sizes":[],"default_left":[0,0,0,0,0],"id":0,"left_children":[1,3,-1,-1,-1],"loss_changes":[5.9910908E1,5.381012E0,0E0,0E0,0E0],"parents":[2147483647,0,0,1,1],"right_children":[2,4,-1,-1,-1],"split_conditions":[-2.2143261E0,-2.003148E0,-2.1794435E-1,-1.253312E-1,4.106596E-1],"split_indices":[5,3,0,0,0],"split_type":[0,0,0,0,0],"sum_hessian":[1.7333333E2,1.5999999E1,1.5733333E2,1.3333333E0,1.4666666E1],"tree_param":{"num_deleted":"0","num_feature":"9","num_nodes":"5","size_leaf_vector":"1"}},{"base_weights":[3.1371316E-1,-2.0675656E-1,4.223602E-1,2.1208662E-1,7.3321855E-1,4.1052628E-1,-3.9366522E-1,1.3483143E-1,8.263473E-1,2.2260314E-1,7.419181E-2,-1.4691935E-1,2.5066236E-1,2.8074184E-1,-4.807225E-2,8.490176E-2,2.7140063E-1],"categories":[],"categories_nodes":[],"categories_segments":[],"categories_sizes":[],"default_left":[0,0,0,0,0,0,0,0,0,0,0,0,0,0,0,0,0],"id":1,"left_children":[1,-1,3,5,7,9,11,13,15,-1,-1,-1,-1,-1,-1,-1,-1],"loss_changes":[1.9976875E1,0E0,1.0368307E1,1.1874936E1,3.4860725E0,3.8703318E0,3.7701004E0,2.5994027E0,2.7654648E0,0E0,0E0,0E0,0E0,0E0,0E0,0E0,0E0],"parents":[2147483647,0,0,2,2,3,3,4,4,5,5,6,6,7,7,8,8],"right_children":[2,-1,4,6,8,10,12,14,16,-1,-1,-1,-1,-1,-1,-1,-1],"split_conditions":[-2.2143261E0,-2.0675656E-1,1.913164E-1,2.549241E-1,-6.206362E-1,-2.1769809E-2,9.344742E-1,-7.9237646E-1,-9.3732256E-1,2.2260314E-1,7.419181E-2,-1.4691935E-1,2.5066236E-1,2.8074184E-1,-4.807225E-2,8.490176E-2,2.7140063E-1],"split_indices":[5,0,0,8,8,7,7,2,7,0,0,0,0,0,0,0,0],"split_type":[0,0,0,0,0,0,0,0,0,0,0,0,0,0,0,0,0],"sum_hessian":[1.7644443E2,1.6444443E1,1.5999998E2,9.6444435E1,6.3555553E1,7.2888885E1,2.3555553E1,8.888888E0,5.4666664E1,2.1333332E1,5.1555553E1,2.2222221E1,1.3333333E0,1.7777777E0,7.1111107E0,9.333333E0,4.5333332E1],"tree_param":{"num_deleted":"0","num_feature":"9","num_nodes":"17","size_leaf_vector":"1"}},{"base_weights":[2.5812617E-1,-5.403727E-1,3.4721237E-1,2.5066236E-1,-2.060815E-1,5.424575E-1,-1.2000005E-1,7.621861E-1,8.108104E-2,-2.734585E-1,8.3606553E-1,1.6462265E-1,3.17103E-1,6.748601E-2,-1.5257712E-1,-1.3497207E-1,6.4390324E-2,3.509273E-1,-3.509274E-2],"categories":[],"categories_nodes":[],"categories_segments":[],"categories_sizes":[],"default_left":[0,0,0,0,0,0,0,0,0,0,0,0,0,0,0,0,0,0,0],"id":2,"left_children":[1,3,5,-1,-1,7,9,11,13,15,17,-1,-1,-1,-1,-1,-1,-1,-1],"loss_changes":[1.258887E1,4.712159E0,1.4427326E1,0E0,0E0,1.1213642E1,7.1569004E0,4.2181816E0,3.459098E0,3.9494991E0,2.502295E0,0E0,0E0,0E0,0E0,0E0,0E0,0E0,0E0],"parents":[2147483647,0,0,1,1,2,2,5,5,6,6,7,7,8,8,9,9,10,10],"right_children":[2,4,6,-1,-1,8,10,12,14,16,18,-1,-1,-1,-1,-1,-1,-1,-1],"split_conditions":[-1.9957647E0,-2.003148E0,4.1634825E-1,2.5066236E-1,-2.060815E-1,2.8784335E-1,6.2119436E-1,4.9115095E-2,9.957076E-1,3.492898E-1,1.913164E-1,1.6462265E-1,3.17103E-1,6.748601E-2,-1.5257712E-1,-1.3497207E-1,6.4390324E-2,3.509273E-1,-3.509274E-2],"split_indices":[5,3,6,0,0,0,8,8,0,2,0,0,0,0,0,0,0,0,0],"split_type":[0,0,0,0,0,0,0,0,0,0,0,0,0,0,0,0,0,0,0],"sum_hessian":[1.7333333E2,1.6888887E1,1.5644443E2,1.3333333E0,1.5555554E1,1.1022221E2,4.622222E1,7.422222E1,3.5999996E1,4.0444443E1,5.7777777E0,4.7555553E1,2.6666664E1,2.9333332E1,6.666666E0,2.9333332E1,1.1111111E1,3.9999998E0,1.7777777E0],"tree_param":{"num_deleted":"0","num_feature":"9","num_nodes":"19","size_leaf_vector":"1"}},{"base_weights":[-4.8526415E-1,8.75904E-1,-1.9744185E-1,-1.1540372E-1,2.8754145E-1],"categories":[],"categories_nodes":[],"categories_segments":[],"categories_sizes":[],"default_left":[0,0,0,0,0],"id":3,"left_children":[1,3,-1,-1,-1],"loss_changes":[4.1316902E1,3.078269E0,0E0,0E0,0E0],"parents":[2147483647,0,0,1,1],"right_children":[2,4,-1,-1,-1],"split_conditions":[-2.2143261E0,-2.003148E0,-1.9744185E-1,-1.1540372E-1,2.8754145E-1],"split_indices":[5,3,0,0,0],"split_type":[0,0,0,0,0],"sum_hessian":[1.5656207E2,1.8725044E1,1.3783702E2,1.2503339E0,1.7474709E1],"tree_param":{"num_deleted":"0","num_feature":"9","num_nodes":"5","size_leaf_vector":"1"}},{"base_weights":[2.500596E-1,9.7699694E-2,6.05052E-1,2.5097016E-1,-4.5172215E-1,7.9529643E-1,1.4403464E-1,5.867227E-2,6.308927E-1,-5.1012635E-1,8.6368345E-2,8.968223E-1,2.0479894E-1,-1.8705916E-1,5.133104E-1,7.143444E-2,-6.454447E-2,1.4666976E-1,2.9862282E-1,-3.761602E-2,-1.7276727E-1,2.749866E-1,-1.2681148E-2,1.5009364E-1,-1.3583447E-1,2.4345255E-1,-9.382046E-2],"categories":[],"categories_nodes":[],"categories_segments":[],"categories_sizes":[],"default_left":[0,0,0,0,0,0,0,0,0,0,0,0,0,0,0,0,0,0,0,0,0,0,0,0,0,0,0],"id":4,"left_children":[1,3,5,7,9,11,13,15,17,19,-1,21,23,-1,25,-1,-1,-1,-1,-1,-1,-1,-1,-1,-1,-1,-1],"loss_changes":[9.6252775E0,1.0763892E1,4.584553E0,7.2345986E0,1.3698902E0,2.0768166E0,5.2110763E0,3.5377145E0,1.1711607E0,7.327533E-1,0E0,1.3444519E0,1.6479079E0,0E0,3.4680543E0,0E0,0E0,0E0,0E0,0E0,0E0,0E0,0E0,0E0,0E0,0E0,0E0],"parents":[2147483647,0,0,1,1,2,2,3,3,4,4,5,5,6,6,7,7,8,8,9,9,11,11,12,12,14,14],"right_children":[2,4,6,8,10,12,14,16,18,20,-1,22,24,-1,26,-1,-1,-1,-1,-1,-1,-1,-1,-1,-1,-1,-1],"split_conditions":[4.286626E-1,5.042111E-1,3.492898E-1,2.8784335E-1,9.261317E-1,3.5957274E-1,4.9950904E-1,-5.9021834E-2,9.957076E-1,-4.3185028E-1,8.6368345E-2,1.3269998E0,-4.0325013E-1,-1.8705916E-1,7.9994756E-1,7.143444E-2,-6.454447E-2,1.4666976E-1,2.9862282E-1,-3.761602E-2,-1.7276727E-1,2.749866E-1,-1.2681148E-2,1.5009364E-1,-1.3583447E-1,2.4345255E-1,-9.382046E-2],"split_indices":[6,1,2,0,2,8,2,8,0,2,0,4,7,0,2,0,0,0,0,0,0,0,0,0,0,0,0],"split_type":[0,0,0,0,0,0,0,0,0,0,0,0,0,0,0,0,0,0,0,0,0,0,0,0,0,0,0],"sum_hessian":[1.7805342E2,1.2547554E2,5.257789E1,9.853168E1,2.694386E1,3.670573E1,1.5872158E1,6.618603E1,3.234565E1,2.5284317E1,1.6595422E0,3.087803E1,5.8277006E0,4.849103E0,1.1023055E1,3.984321E1,2.6342823E1,2.6009607E1,6.3360395E0,4.865389E0,2.0418928E1,2.9512497E1,1.3655335E0,4.148816E0,1.6788843E0,7.9738474E0,3.0492084E0],"tree_param":{"num_deleted":"0","num_feature":"9","num_nodes":"27","size_leaf_vector":"1"}},{"base_weights":[1.737157E-1,-4.689671E-1,2.372268E-1,2.0193349E-1,-1.8432564E-1,-1.9960652E-1,2.894941E-1,4.5973262E-1,-1.105694E-2,8.895299E-2,2.6762334E-1,-6.9471784E-2,1.6607147E-1],"categories":[],"categories_nodes":[],"categories_segments":[],"categories_sizes":[],"default_left":[0,0,0,0,0,0,0,0,0,0,0,0,0],"id":5,"left_children":[1,3,5,-1,-1,-1,7,9,11,-1,-1,-1,-1],"loss_changes":[7.368949E0,3.4894748E0,8.008833E0,0E0,0E0,0E0,7.907424E0,6.7082157E0,7.5864396E0,0E0,0E0,0E0,0E0],"parents":[2147483647,0,0,1,1,2,2,6,6,7,7,8,8],"right_children":[2,4,6,-1,-1,-1,8,10,12,-1,-1,-1,-1],"split_conditions":[-1.9957647E0,-2.003148E0,-1.6057229E0,2.0193349E-1,-1.8432564E-1,-1.9960652E-1,2.3163296E-1,5.042111E-1,4.766978E-1,8.895299E-2,2.6762334E-1,-6.9471784E-2,1.6607147E-1],"split_indices":[5,3,1,0,0,0,6,1,7,0,0,0,0],"split_type":[0,0,0,0,0,0,0,0,0,0,0,0,0],"sum_hessian":[1.7680855E2,1.532702E1,1.6148152E2,1.471536E0,1.3855484E1,8.034472E0,1.5344705E2,9.7622154E1,5.5824894E1,7.4009995E1,2.361216E1,4.054994E1,1.5274957E1],"tree_param":{"num_deleted":"0","num_feature":"9","num_nodes":"13","size_leaf_vector":"1"}},{"base_weights":[-4.4548693E-1,7.2632796E-1,-1.8422872E-1,-3.7499398E-2,2.3754299E-1],"categories":[],"categories_nodes":[],"categories_segments":[],"categories_sizes":[],"default_left":[0,0,0,0,0],"id":6,"left_children":[1,3,-1,-1,-1],"loss_changes":[3.015323E1,1.5106754E0,0E0,0E0,0E0],"parents":[2147483647,0,0,1,1],"right_children":[2,4,-1,-1,-1],"split_conditions":[-2.2143261E0,-2.4067595E0,-1.8422872E-1,-3.7499398E-2,2.3754299E-1],"split_indices":[5,5,0,0,0],"split_type":[0,0,0,0,0],"sum_hessian":[1.3636383E2,1.814884E1,1.18215E2,1.613666E0,1.6535173E1],"tree_param":{"num_deleted":"0","num_feature":"9","num_nodes":"5","size_leaf_vector":"1"}},{"base_weights":[2.0756665E-1,-1.7561324E-1,2.741115E-1,3.8724518E-1,1.064154E-2,7.164778E-1,1.8349673E-1,-1.3029829E-1,2.4745332E-1,7.8931995E-2,2.4743122E-1,2.1137064E-2,1.8391639E-1,-1.8243484E-1,3.9205696E-2],"categories":[],"categories_nodes":[],"categories_segments":[],"categories_sizes":[],"default_left":[0,0,0,0,0,0,0,0,0,0,0,0,0,0,0],"id":7,"left_children":[1,-1,3,5,7,9,11,13,-1,-1,-1,-1,-1,-1,-1],"loss_changes":[9.752094E0,0E0,4.926469E0,7.6294556E0,6.0829864E0,2.3117409E0,3.5614462E0,5.8591366E0,0E0,0E0,0E0,0E0,0E0,0E0,0E0],"parents":[2147483647,0,0,2,2,3,3,4,4,5,5,6,6,7,7],"right_children":[2,-1,4,6,8,10,12,14,-1,-1,-1,-1,-1,-1,-1],"split_conditions":[-2.2143261E0,-1.7561324E-1,2.0259978E-1,5.452625E-2,9.957076E-1,-3.6210474E-1,-2.1250652E-1,-8.966313E-1,2.4745332E-1,7.8931995E-2,2.4743122E-1,2.1137064E-2,1.8391639E-1,-1.8243484E-1,3.9205696E-2],"split_indices":[5,0,8,7,0,0,8,7,0,0,0,0,0,0,0],"split_type":[0,0,0,0,0,0,0,0,0,0,0,0,0,0,0],"sum_hessian":[1.7729411E2,1.2878742E1,1.6441537E2,1.1469548E2,4.9719887E1,4.288388E1,7.18116E1,4.3265724E1,6.4541636E0,1.0340365E1,3.2543514E1,5.8393112E1,1.3418491E1,1.461714E1,2.8648584E1],"tree_param":{"num_deleted":"0","num_feature":"9","num_nodes":"15","size_leaf_vector":"1"}},{"base_weights":[1.4961493E-1,-1.854997E-1,1.8585657E-1,8.7286025E-2,5.9724236E-1,-2.1175858E-1,3.0483463E-1,7.4871427E-1,-1.6105573E-1,7.2633125E-2,-1.145355E-1,1.350876E-1,-2.1515448E-2,-4.174813E-2,2.3851635E-1],"categories":[],"categories_nodes":[],"categories_segments":[],"categories_sizes":[],"default_left":[0,0,0,0,0,0,0,0,0,0,0,0,0,0,0],"id":8,"left_children":[1,-1,3,5,7,9,11,13,-1,-1,-1,-1,-1,-1,-1],"loss_changes":[5.108635E0,0E0,6.7876663E0,8.993027E0,6.0518208E0,4.930167E0,4.7812114E0,1.8503532E0,0E0,0E0,0E0,0E0,0E0,0E0,0E0],"parents":[2147483647,0,0,2,2,3,3,4,4,5,5,6,6,7,7],"right_children":[2,-1,4,6,8,10,12,14,-1,-1,-1,-1,-1,-1,-1],"split_conditions":[-1.6057229E0,-1.854997E-1,4.6770966E-1,5.452625E-2,9.957076E-1,-3.6210474E-1,-2.1250652E-1,-1.3011084E0,-1.6105573E-1,7.2633125E-2,-1.145355E-1,1.350876E-1,-2.1515448E-2,-4.174813E-2,2.3851635E-1],"split_indices":[1,0,8,7,0,0,8,3,0,0,0,0,0,0,0],"split_type":[0,0,0,0,0,0,0,0,0,0,0,0,0,0,0],"sum_hessian":[1.7466219E2,6.988712E0,1.6767346E2,1.3624138E2,3.143209E1,5.7385406E1,7.885597E1,2.8075415E1,3.3566751E0,1.6022778E1,4.1362625E1,5.5566372E1,2.32896E1,1.8805367E0,2.6194878E1],"tree_param":{"num_deleted":"0","num_feature":"9","num_nodes":"15","size_leaf_vector":"1"}},{"base_weights":[-4.202995E-1,6.264233E-1,-1.7510578E-1,-1.03513554E-1,2.0873752E-1],"categories":[],"categories_nodes":[],"categories_segments":[],"categories_sizes":[],"default_left":[0,0,0,0,0],"id":9,"left_children":[1,3,-1,-1,-1],"loss_changes":[2.2611572E1,1.7795E0,0E0,0E0,0E0],"parents":[2147483647,0,0,1,1],"right_children":[2,4,-1,-1,-1],"split_conditions":[-2.2143261E0,-2.003148E0,-1.7510578E-1,-1.03513554E-1,2.0873752E-1],"split_indices":[5,3,0,0,0],"split_type":[0,0,0,0,0],"sum_hessian":[1.18029015E2,1.6827862E1,1.0120116E2,1.1270688E0,1.5700793E1],"tree_param":{"num_deleted":"0","num_feature":"9","num_nodes":"5","size_leaf_vector":"1"}},{"base_weights":[1.5666658E-1,-5.231062E-1,2.0993654E-1,1.002863E-2,-1.6877651E-1,1.0493585E-1,4.450728E-1,5.6790978E-2,2.4150047E-1,5.2670205E-1,-1.8978852E-1,5.669631E-2,-9.8855704E-2,1.8989493E-1,5.72235E-2,-1.5381706E-1,1.1075632E-1],"categories":[],"categories_nodes":[],"categories_segments":[],"categories_sizes":[],"default_left":[0,0,0,0,0,0,0,0,0,0,0,0,0,0,0,0,0],"id":10,"left_children":[1,3,5,-1,-1,7,9,11,-1,13,15,-1,-1,-1,-1,-1,-1],"loss_changes":[6.436881E0,4.1078877E-1,3.9713035E0,0E0,0E0,3.9031138E0,2.6875E0,5.8979836E0,0E0,1.6798525E0,1.4269592E0,0E0,0E0,0E0,0E0,0E0,0E0],"parents":[2147483647,0,0,1,1,2,2,5,5,6,6,7,7,9,9,10,10],"right_children":[2,4,6,-1,-1,8,10,12,-1,14,16,-1,-1,-1,-1,-1,-1],"split_conditions":[-1.8108544E0,-1.5139929E0,4.1634825E-1,1.002863E-2,-1.6877651E-1,1.4200124E0,6.2119436E-1,2.0259978E-1,2.4150047E-1,3.492898E-1,1.913164E-1,5.669631E-2,-9.8855704E-2,1.8989493E-1,5.72235E-2,-1.5381706E-1,1.1075632E-1],"split_indices":[3,0,6,0,0,8,8,8,0,2,0,0,0,0,0,0,0],"split_type":[0,0,0,0,0,0,0,0,0,0,0,0,0,0,0,0,0],"sum_hessian":[1.7372536E2,1.1983622E1,1.6174174E2,1.091176E0,1.0892446E1,1.12811676E2,4.893006E1,1.06760315E2,6.051362E0,4.3506454E1,5.4236083E0,7.962417E1,2.7136143E1,3.1043232E1,1.2463223E1,3.455219E0,1.968389E0],"tree_param":{"num_deleted":"0","num_feature":"9","num_nodes":"17","size_leaf_vector":"1"}},{"base_weights":[1.3146573E-1,3.1881195E-1,-1.7152438E-2,3.6996627E-1,-1.8139417E-1,-1.8071093E-1,2.3386036E-1,2.1536098E-1,7.0460886E-1,5.4810005E-1,-3.2557583E-1,-3.0178466E-1,4.417194E-1,1.280267E-1,-3.7301257E-2,-3.4757794E-3,2.2007087E-1,-2.1948677E-2,2.2564346E-1,-1.6579764E-1,-4.4292316E-2,1.4406262E-1,-1.4823656E-1,-1.3281362E-1,1.5353924E-1],"categories":[],"categories_nodes":[],"categories_segments":[],"categories_sizes":[],"default_left":[0,0,0,0,0,0,0,0,0,0,0,0,0,0,0,0,0,0,0,0,0,0,0,0,0],"id":11,"left_children":[1,3,5,7,-1,9,11,13,15,17,19,21,23,-1,-1,-1,-1,-1,-1,-1,-1,-1,-1,-1,-1],"loss_changes":[4.742442E0,3.8473072E0,3.976196E0,3.5757751E0,0E0,6.3633842E0,4.3908286E0,3.9244072E0,7.756252E-1,1.4625797E0,1.9942589E0,2.088448E0,2.3248634E0,0E0,0E0,0E0,0E0,0E0,0E0,0E0,0E0,0E0,0E0,0E0,0E0],"parents":[2147483647,0,0,1,1,2,2,3,3,5,5,6,6,7,7,8,8,9,9,10,10,11,11,12,12],"right_children":[2,4,6,8,-1,10,12,14,16,18,20,22,24,-1,-1,-1,-1,-1,-1,-1,-1,-1,-1,-1,-1],"split_conditions":[-1.377976E-1,9.261317E-1,2.8341442E-1,3.9906493E-1,-1.8139417E-1,-8.966313E-1,-3.717626E-1,1.3970427E-1,-4.3068343E-1,2.1038963E-2,4.673478E-2,4.0040174E-1,-2.488951E0,1.280267E-1,-3.7301257E-2,-3.4757794E-3,2.2007087E-1,-2.1948677E-2,2.2564346E-1,-1.6579764E-1,-4.4292316E-2,1.4406262E-1,-1.4823656E-1,-1.3281362E-1,1.5353924E-1],"split_indices":[6,2,7,1,0,7,2,1,3,3,4,7,1,0,0,0,0,0,0,0,0,0,0,0,0],"split_type":[0,0,0,0,0,0,0,0,0,0,0,0,0,0,0,0,0,0,0,0,0,0,0,0,0],"sum_hessian":[1.6913126E2,7.43108E1,9.482046E1,7.104677E1,3.26403E0,5.758105E1,3.7239407E1,4.971974E1,2.1327026E1,9.086022E0,4.849503E1,1.0284574E1,2.6954834E1,2.999018E1,1.9729563E1,1.384265E0,1.9942762E1,2.5737789E0,6.5122433E0,1.9377213E1,2.9117815E1,1.8228515E0,8.461721E0,1.9146014E0,2.5040232E1],"tree_param":{"num_deleted":"0","num_feature":"9","num_nodes":"25","size_leaf_vector":"1"}},{"base_weights":[-4.0705067E-1,5.5214286E-1,-1.6838077E-1,-9.69964E-2,1.8707518E-1],"categories":[],"categories_nodes":[],"categories_segments":[],"categories_sizes":[],"default_left":[0,0,0,0,0],"id":12,"left_children":[1,3,-1,-1,-1],"loss_changes":[1.6465515E1,1.4067512E0,0E0,0E0,0E0],"parents":[2147483647,0,0,1,1],"right_children":[2,4,-1,-1,-1],"split_conditions":[-2.2143261E0,-2.003148E0,-1.6838077E-1,-9.69964E-2,1.8707518E-1],"split_indices":[5,3,0,0,0],"split_type":[0,0,0,0,0],"sum_hessian":[9.87726E1,1.4435756E1,8.4336845E1,1.0499617E0,1.3385795E1],"tree_param":{"num_deleted":"0","num_feature":"9","num_nodes":"5","size_leaf_vector":"1"}},{"base_weights":[1.2522757E-1,-4.8333338E-1,1.6598059E-1,-1.5853392E-1,1.2157919E-2,2.164479E-1,-2.6165015E-1,-3.5845616E-1,2.5401634E-1,-1.8087958E-1,4.45145E-2,1.7565872E-1,-2.0628518E-1,-3.1433094E-2,8.9024566E-2,-1.2864456E-1,8.736881E-2],"categories":[],"categories_nodes":[],"categories_segments":[],"categories_sizes":[],"default_left":[0,0,0,0,0,0,0,0,0,0,0,0,0,0,0,0,0],"id":13,"left_children":[1,3,5,-1,-1,7,9,11,13,-1,15,-1,-1,-1,-1,-1,-1],"loss_changes":[4.2272654E0,3.542087E-1,3.4549255E0,0E0,0E0,3.1448245E0,1.8930973E0,3.4476147E0,2.4616518E0,0E0,1.3781651E0,0E0,0E0,0E0,0E0,0E0,0E0],"parents":[2147483647,0,0,1,1,2,2,5,5,6,6,7,7,8,8,10,10],"right_children":[2,4,6,-1,-1,8,10,12,14,-1,16,-1,-1,-1,-1,-1,-1],"split_conditions":[-1.8108544E0,7.0558596E-1,9.1778624E-1,-1.5853392E-1,1.2157919E-2,-1.1438794E0,-1.5626913E-1,-1.7392224E0,-8.966313E-1,-1.8087958E-1,1.0860202E0,1.7565872E-1,-2.0628518E-1,-3.1433094E-2,8.9024566E-2,-1.2864456E-1,8.736881E-2],"split_indices":[3,7,1,0,0,8,6,0,7,0,1,0,0,0,0,0,0],"split_type":[0,0,0,0,0,0,0,0,0,0,0,0,0,0,0,0,0],"sum_hessian":[1.6621469E2,9.750552E0,1.5646413E2,8.73923E0,1.0113219E0,1.4038972E2,1.6074402E1,8.087444E0,1.3230229E2,6.9514627E0,9.122938E0,1.9540553E0,6.133389E0,1.6050991E1,1.162513E2,2.888739E0,6.2341995E0],"tree_param":{"num_deleted":"0","num_feature":"9","num_nodes":"17","size_leaf_vector":"1"}},{"base_weights":[1.1003067E-1,-1.6960531E-1,1.402571E-1,2.4233735E-1,9.9647224E-2,-1.6632069E-2,3.4872714E-1,-8.338395E-2,4.2267926E-2,1.413479E-1,-9.62596E-2],"categories":[],"categories_nodes":[],"categories_segments":[],"categories_sizes":[],"default_left":[0,0,0,0,0,0,0,0,0,0,0],"id":14,"left_children":[1,-1,3,-1,5,7,9,-1,-1,-1,-1],"loss_changes":[3.5632815E0,0E0,4.411406E0,0E0,4.435113E0,4.5941806E0,4.6046996E0,0E0,0E0,0E0,0E0],"parents":[2147483647,0,0,2,2,4,4,5,5,6,6],"right_children":[2,-1,4,-1,6,8,10,-1,-1,-1,-1],"split_conditions":[-1.6057229E0,-1.6960531E-1,-1.1438794E0,2.4233735E-1,2.0608807E-1,5.452625E-2,4.7547397E-1,-8.338395E-2,4.2267926E-2,1.413479E-1,-9.62596E-2],"split_indices":[1,0,8,0,8,7,2,0,0,0,0],"split_type":[0,0,0,0,0,0,0,0,0,0,0],"sum_hessian":[1.659499E2,6.201307E0,1.5974861E2,7.8176765E0,1.5193092E2,1.0421358E2,4.7717354E1,3.8801815E1,6.541176E1,4.005108E1,7.666273E0],"tree_param":{"num_deleted":"0","num_feature":"9","num_nodes":"11","size_leaf_vector":"1"}},{"base_weights":[-3.895002E-1,5.154574E-1,-1.6333608E-1,-3.341458E-2,1.7338702E-1],"categories":[],"categories_nodes":[],"categories_segments":[],"categories_sizes":[],"default_left":[0,0,0,0,0],"id":15,"left_children":[1,3,-1,-1,-1],"loss_changes":[1.3467554E1,7.544048E-1,0E0,0E0,0E0],"parents":[2147483647,0,0,1,1],"right_children":[2,4,-1,-1,-1],"split_conditions":[-2.2143261E0,-2.4067595E0,-1.6333608E-1,-3.341458E-2,1.7338702E-1],"split_indices":[5,5,0,0,0],"split_type":[0,0,0,0,0],"sum_hessian":[8.516154E1,1.3080585E1,7.208095E1,1.3803937E0,1.1700191E1],"tree_param":{"num_deleted":"0","num_feature":"9","num_nodes":"5","size_leaf_vector":"1"}},{"base_weights":[1.1995499E-1,-1.3707823E-1,1.5773767E-1,6.820674E-2,3.7084168E-1,2.6813464E-2,2.0611309E-1,5.112196E-1,1.2212316E-2,3.4127712E-2,-7.7658966E-2,9.421729E-2,2.0655513E-1,-1.8443853E-1,7.634148E-2],"categories":[],"categories_nodes":[],"categories_segments":[],"categories_sizes":[],"default_left":[0,0,0,0,0,0,0,0,0,0,0,0,0,0,0],"id":16,"left_children":[1,-1,3,5,7,9,-1,11,13,-1,-1,-1,-1,-1,-1],"loss_changes":[3.6196032E0,0E0,2.8469903E0,2.8067791E0,2.2245455E0,2.7043393E0,0E0,9.460697E-1,2.3227293E0,0E0,0E0,0E0,0E0,0E0,0E0],"parents":[2147483647,0,0,2,2,3,3,4,4,5,5,7,7,8,8],"right_children":[2,-1,4,6,8,10,-1,12,14,-1,-1,-1,-1,-1,-1],"split_conditions":[-1.426267E0,-1.3707823E-1,4.1634825E-1,1.4200124E0,3.492898E-1,2.0259978E-1,2.0611309E-1,-1.3141179E-1,4.9950904E-1,3.4127712E-2,-7.7658966E-2,9.421729E-2,2.0655513E-1,-1.8443853E-1,7.634148E-2],"split_indices":[3,0,6,8,2,8,0,2,2,0,0,0,0,0,0],"split_type":[0,0,0,0,0,0,0,0,0,0,0,0,0,0,0],"sum_hessian":[1.5840945E2,8.865714E0,1.4954375E2,1.0623255E2,4.3311195E1,1.00725266E2,5.5072875E0,3.0821344E1,1.2489849E1,7.749949E1,2.322577E1,1.7000181E1,1.3821163E1,3.0570571E0,9.432792E0],"tree_param":{"num_deleted":"0","num_feature":"9","num_nodes":"15","size_leaf_vector":"1"}},{"base_weights":[1.0380648E-1,-1.7991644E-1,1.2737142E-1,-1.5740362E-1,1.537512E-1,2.6114157E-1,-4.559107E-3,4.925882E-2,1.5826431E-1,-1.2405168E-1,4.6791054E-2],"categories":[],"categories_nodes":[],"categories_segments":[],"categories_sizes":[],"default_left":[0,0,0,0,0,0,0,0,0,0,0],"id":17,"left_children":[1,-1,3,-1,5,7,9,-1,-1,-1,-1],"loss_changes":[2.7971997E0,0E0,2.8253863E0,0E0,2.5686913E0,2.2452297E0,4.350875E0,0E0,0E0,0E0,0E0],"parents":[2147483647,0,0,2,2,4,4,5,5,6,6],"right_children":[2,-1,4,-1,6,8,10,-1,-1,-1,-1],"split_conditions":[-2.138341E0,-1.7991644E-1,-1.6057229E0,-1.5740362E-1,1.3898285E-1,1.880745E-2,3.7933365E-1,4.925882E-2,1.5826431E-1,-1.2405168E-1,4.6791054E-2],"split_indices":[2,0,1,0,2,2,2,0,0,0,0],"split_type":[0,0,0,0,0,0,0,0,0,0,0],"sum_hessian":[1.5946059E2,4.2634344E0,1.5519716E2,5.176634E0,1.5002052E2,8.8998505E1,6.1022015E1,6.80681E1,2.0930408E1,1.674473E1,4.4277287E1],"tree_param":{"num_deleted":"0","num_feature":"9","num_nodes":"11","size_leaf_vector":"1"}},{"base_weights":[-3.8569573E-1,4.0374187E-1,-1.5934257E-1,-1.0755115E-1,1.5907083E-1],"categories":[],"categories_nodes":[],"categories_segments":[],"categories_sizes":[],"default_left":[0,0,0,0,0],"id":18,"left_children":[1,3,-1,-1,-1],"loss_changes":[9.417423E0,1.5906706E0,0E0,0E0,0E0],"parents":[2147483647,0,0,1,1],"right_children":[2,4,-1,-1,-1],"split_conditions":[-1.6242698E0,-1.8916448E0,-1.5934257E-1,-1.0755115E-1,1.5907083E-1],"split_indices":[3,3,0,0,0],"split_type":[0,0,0,0,0],"sum_hessian":[7.219236E1,1.1856092E1,6.0336266E1,1.5736095E0,1.0282483E1],"tree_param":{"num_deleted":"0","num_feature":"9","num_nodes":"5","size_leaf_vector":"1"}},{"base_weights":[1.0600838E-1,1.6856948E-1,-1.9794603E-1,-1.1502929E-1,1.9662617E-1,-3.809287E-1,6.823175E-2,1.4951496E-1,5.807001E-1,-2.9842207E-2,-4.6082595E-1,3.1253865E-1,-2.7643007E-1,4.7939685E-3,8.582519E-2,5.121778E-2,2.0017873E-1,1.3165765E-1,-1.15518875E-1,-1.7931098E-1,-4.224734E-2,-6.6309005E-2,1.3686942E-1,6.8231374E-2,-1.6888995E-1],"categories":[],"categories_nodes":[],"categories_segments":[],"categories_sizes":[],"default_left":[0,0,0,0,0,0,0,0,0,0,0,0,0,0,0,0,0,0,0,0,0,0,0,0,0],"id":19,"left_children":[1,3,5,-1,7,9,11,13,15,17,19,21,23,-1,-1,-1,-1,-1,-1,-1,-1,-1,-1,-1,-1],"loss_changes":[3.0105686E0,2.1328547E0,1.350027E0,0E0,2.1721864E0,4.424007E-1,1.090321E0,2.1522636E0,4.3982744E-1,8.937499E-1,5.4647255E-1,7.305197E-1,9.752397E-1,0E0,0E0,0E0,0E0,0E0,0E0,0E0,0E0,0E0,0E0,0E0,0E0],"parents":[2147483647,0,0,1,1,2,2,4,4,5,5,6,6,7,7,8,8,9,9,10,10,11,11,12,12],"right_children":[2,4,6,-1,8,10,12,14,16,18,20,22,24,-1,-1,-1,-1,-1,-1,-1,-1,-1,-1,-1,-1],"split_conditions":[7.0749384E-1,-1.8108544E0,4.286626E-1,-1.1502929E-1,7.7047807E-1,-4.0325013E-1,3.492898E-1,1.3970427E-1,-1.2781116E0,8.1264E-1,-1.2548324E-1,-4.578417E-1,-2.1769809E-2,4.7939685E-3,8.582519E-2,5.121778E-2,2.0017873E-1,1.3165765E-1,-1.15518875E-1,-1.7931098E-1,-4.224734E-2,-6.6309005E-2,1.3686942E-1,6.8231374E-2,-1.6888995E-1],"split_indices":[1,3,6,0,0,7,2,1,7,1,6,4,7,0,0,0,0,0,0,0,0,0,0,0,0],"split_type":[0,0,0,0,0,0,0,0,0,0,0,0,0,0,0,0,0,0,0,0,0,0,0,0,0],"sum_hessian":[1.5556525E2,1.2938097E2,2.6184286E1,5.5336967E0,1.2384727E2,1.5261638E1,1.0922647E1,1.1155323E2,1.2294036E1,3.0838802E0,1.2177757E1,6.446425E0,4.4762225E0,5.8538063E1,5.301517E1,3.0532367E0,9.240799E0,1.2317814E0,1.852099E0,7.586599E0,4.591159E0,1.3401313E0,5.1062937E0,1.7457516E0,2.730471E0],"tree_param":{"num_deleted":"0","num_feature":"9","num_nodes":"25","size_leaf_vector":"1"}},{"base_weights":[7.385101E-2,3.3055037E-2,4.0837497E-1,-4.9165705E-1,5.9604537E-2,1.866514E-1,1.5034862E-1,-1.7340827E-1,9.326657E-3,1.9701008E-1,-7.061458E-2,1.6811386E-1,-1.3845266E-1,-1.4702658E-1,7.489006E-2,-1.5366913E-1,8.912275E-3,-8.463469E-2,6.967039E-2],"categories":[],"categories_nodes":[],"categories_segments":[],"categories_sizes":[],"default_left":[0,0,0,0,0,0,0,0,0,0,0,0,0,0,0,0,0,0,0],"id":20,"left_children":[1,3,5,7,9,-1,11,-1,-1,13,15,-1,17,-1,-1,-1,-1,-1,-1],"loss_changes":[2.1236238E0,1.9888731E0,9.084604E-1,3.8399136E-1,2.425531E0,0E0,1.2181332E0,0E0,0E0,2.8508105E0,3.2318144E0,0E0,4.290457E-1,0E0,0E0,0E0,0E0,0E0,0E0],"parents":[2147483647,0,0,1,1,2,2,3,3,4,4,6,6,9,9,10,10,12,12],"right_children":[2,4,6,8,10,-1,12,-1,-1,14,16,-1,18,-1,-1,-1,-1,-1,-1],"split_conditions":[9.1778624E-1,-1.693692E0,-1.5626913E-1,2.8690895E-1,1.3970427E-1,1.866514E-1,1.0860202E0,-1.7340827E-1,9.326657E-3,-1.8160152E0,1.887725E-1,1.6811386E-1,4.6791768E-1,-1.4702658E-1,7.489006E-2,-1.5366913E-1,8.912275E-3,-8.463469E-2,6.967039E-2],"split_indices":[1,2,6,1,1,0,1,0,0,1,1,0,5,0,0,0,0,0,0],"split_type":[0,0,0,0,0,0,0,0,0,0,0,0,0,0,0,0,0,0,0],"sum_hessian":[1.5559755E2,1.3966402E2,1.5933539E1,5.882692E0,1.3378133E2,7.6470213E0,8.286518E0,4.817782E0,1.0649099E0,6.4844894E1,6.8936424E1,2.9539218E0,5.3325963E0,4.463592E0,6.0381306E1,1.1771608E1,5.7164814E1,3.9723928E0,1.3602037E0],"tree_param":{"num_deleted":"0","num_feature":"9","num_nodes":"19","size_leaf_vector":"1"}},{"base_weights":[-3.6836594E-1,4.554911E-1,-1.563416E-1,-2.4153737E-2,1.5759203E-1],"categories":[],"categories_nodes":[],"categories_segments":[],"categories_sizes":[],"default_left":[0,0,0,0,0],"id":21,"left_children":[1,3,-1,-1,-1],"loss_changes":[8.818517E0,5.40478E-1,0E0,0E0,0E0],"parents":[2147483647,0,0,1,1],"right_children":[2,4,-1,-1,-1],"split_conditions":[-2.2143261E0,-1.8859589E0,-1.563416E-1,-2.4153737E-2,1.5759203E-1],"split_indices":[5,3,0,0,0],"split_type":[0,0,0,0,0],"sum_hessian":[6.1608246E1,1.0052363E1,5.155588E1,1.3502188E0,8.702146E0],"tree_param":{"num_deleted":"0","num_feature":"9","num_nodes":"5","size_leaf_vector":"1"}},{"base_weights":[7.538924E-2,3.4947317E-2,1.3700475E-1,-1.9570582E-1,9.484784E-2,-2.7438682E-1,1.5535457E-1,1.6509235E-1,-1.3819568E-1,-3.5638686E-2,-1.7929332E-1,8.16729E-2,-4.2067066E-2,-1.0297255E-1,9.353374E-2],"categories":[],"categories_nodes":[],"categories_segments":[],"categories_sizes":[],"default_left":[0,0,0,0,0,0,0,0,0,0,0,0,0,0,0],"id":22,"left_children":[1,3,-1,5,7,9,-1,11,13,-1,-1,-1,-1,-1,-1],"loss_changes":[2.4302468E0,1.9614322E0,0E0,1.8226013E0,1.8612511E0,1.3259501E0,0E0,3.100505E0,2.7145882E0,0E0,0E0,0E0,0E0,0E0,0E0],"parents":[2147483647,0,0,1,1,3,3,4,4,5,5,7,7,8,8],"right_children":[2,4,-1,6,8,10,-1,12,14,-1,-1,-1,-1,-1,-1],"split_conditions":[7.7047807E-1,1.4848131E-1,1.3700475E-1,2.078915E0,5.8859867E-1,5.7437744E-2,1.5535457E-1,2.0259978E-1,1.0870663E0,-3.5638686E-2,-1.7929332E-1,8.16729E-2,-4.2067066E-2,-1.0297255E-1,9.353374E-2],"split_indices":[0,3,0,7,7,3,0,8,7,0,0,0,0,0,0],"split_type":[0,0,0,0,0,0,0,0,0,0,0,0,0,0,0],"sum_hessian":[1.5289748E2,1.3962212E2,1.3275348E1,2.831709E1,1.1130503E2,2.6113255E1,2.2038348E0,8.574974E1,2.5555298E1,1.8943037E1,7.170216E0,6.2678776E1,2.3070961E1,1.7577278E1,7.978019E0],"tree_param":{"num_deleted":"0","num_feature":"9","num_nodes":"15","size_leaf_vector":"1"}},{"base_weights":[7.353118E-2,-1.6666892E-1,9.175268E-2,5.5736446E-1,3.211958E-2,1.8242703E-1,-5.0572757E-2,-2.7199057E-1,8.4610984E-2,7.1189046E-2,-1.16833046E-1,-3.399958E-2,4.922734E-2],"categories":[],"categories_nodes":[],"categories_segments":[],"categories_sizes":[],"default_left":[0,0,0,0,0,0,0,0,0,0,0,0,0],"id":23,"left_children":[1,-1,3,5,7,-1,-1,9,11,-1,-1,-1,-1],"loss_changes":[1.8311048E0,0E0,4.1024857E0,9.224849E-1,2.1398983E0,0E0,0E0,1.3958566E0,1.9343054E0,0E0,0E0,0E0,0E0],"parents":[2147483647,0,0,2,2,3,3,4,4,7,7,8,8],"right_children":[2,-1,4,6,8,-1,-1,10,12,-1,-1,-1,-1],"split_conditions":[-2.1580596E0,-1.6666892E-1,-8.966313E-1,1.2332249E0,-4.0325013E-1,1.8242703E-1,-5.0572757E-2,1.4391398E-1,7.1418784E-3,7.1189046E-2,-1.16833046E-1,-3.399958E-2,4.922734E-2],"split_indices":[7,0,7,1,7,0,0,3,4,0,0,0,0],"split_type":[0,0,0,0,0,0,0,0,0,0,0,0,0],"sum_hessian":[1.5071419E2,3.3166137E0,1.4739757E2,1.5787003E1,1.3161057E2,1.46040535E1,1.1829492E0,1.8757418E1,1.1285315E2,3.5400631E0,1.5217356E1,3.308488E1,7.976827E1],"tree_param":{"num_deleted":"0","num_feature":"9","num_nodes":"13","size_leaf_vector":"1"}},{"base_weights":[-3.5675114E-1,4.323206E-1,-1.5360351E-1,-3.0075409E-2,1.5061066E-1],"categories":[],"categories_nodes":[],"categories_segments":[],"categories_sizes":[],"default_left":[0,0,0,0,0],"id":24,"left_children":[1,3,-1,-1,-1],"loss_changes":[7.365734E0,4.9535203E-1,0E0,0E0,0E0],"parents":[2147483647,0,0,1,1],"right_children":[2,4,-1,-1,-1],"split_conditions":[-2.2143261E0,-2.4067595E0,-1.5360351E-1,-3.0075409E-2,1.5061066E-1],"split_indices":[5,5,0,0,0],"split_type":[0,0,0,0,0],"sum_hessian":[5.2691544E1,8.996302E0,4.369524E1,1.1714563E0,7.824846E0],"tree_param":{"num_deleted":"0","num_feature":"9","num_nodes":"5","size_leaf_vector":"1"}},{"base_weights":[6.67306E-2,-4.789983E-3,2.2150558E-1,1.643339E-1,-3.30637E-2,2.7857202E-1,-3.0470297E-1,-1.8089183E-1,7.5476975E-3,-1.2080996E-1,3.2031283E-1,-1.8312037E-1,6.561763E-2,-8.122349E-2,2.4134405E-2,1.4251816E-1,5.4851998E-2],"categories":[],"categories_nodes":[],"categories_segments":[],"categories_sizes":[],"default_left":[0,0,0,0,0,0,0,0,0,0,0,0,0,0,0,0,0],"id":25,"left_children":[1,3,5,-1,7,9,11,-1,13,-1,15,-1,-1,-1,-1,-1,-1],"loss_changes":[1.6366241E0,1.6535392E0,1.4877794E0,0E0,2.3380003E0,1.364265E0,9.9918586E-1,0E0,2.007031E0,0E0,8.1333303E-1,0E0,0E0,0E0,0E0,0E0,0E0],"parents":[2147483647,0,0,1,1,2,2,4,4,5,5,6,6,8,8,10,10],"right_children":[2,4,6,-1,8,10,12,-1,14,-1,16,-1,-1,-1,-1,-1,-1],"split_conditions":[2.8784335E-1,-1.719917E0,5.854065E-1,1.643339E-1,-1.1438794E0,-8.7678045E-1,6.739511E-1,-1.8089183E-1,1.4848131E-1,-1.2080996E-1,5.002026E-1,-1.8312037E-1,6.561763E-2,-8.122349E-2,2.4134405E-2,1.4251816E-1,5.4851998E-2],"split_indices":[0,0,3,0,8,5,0,0,3,0,0,0,0,0,0,0,0],"split_type":[0,0,0,0,0,0,0,0,0,0,0,0,0,0,0,0,0],"sum_hessian":[1.4675273E2,1.0103439E2,4.5718334E1,3.9040825E0,9.713031E1,4.1669907E1,4.0484257E0,5.3770914E0,9.175322E1,1.8651779E0,3.980473E1,2.404121E0,1.6443048E0,1.8532936E1,7.322028E1,1.6443354E1,2.3361376E1],"tree_param":{"num_deleted":"0","num_feature":"9","num_nodes":"17","size_leaf_vector":"1"}},{"base_weights":[6.405581E-2,5.196866E-1,3.52773E-2,-4.007247E-2,2.0162599E-1,-5.7109065E-2,1.8717273E-1,7.778028E-2,-3.4807122E-1,2.1868807E-1,-1.5123577E-1,5.189088E-3,1.7317313E-1,1.3193364E-1,-1.2334934E-1,9.6828625E-2,-1.2221411E-4],"categories":[],"categories_nodes":[],"categories_segments":[],"categories_sizes":[],"default_left":[0,0,0,0,0,0,0,0,0,0,0,0,0,0,0,0,0],"id":26,"left_children":[1,3,5,-1,-1,7,9,11,13,15,-1,-1,-1,-1,-1,-1,-1],"loss_changes":[1.9634964E0,1.087493E0,2.0207226E0,0E0,0E0,3.5527186E0,1.3207223E0,1.9101549E0,1.8775969E0,1.3001325E0,0E0,0E0,0E0,0E0,0E0,0E0,0E0],"parents":[2147483647,0,0,1,1,2,2,5,5,6,6,7,7,8,8,9,9],"right_children":[2,4,6,-1,-1,8,10,12,14,16,-1,-1,-1,-1,-1,-1,-1],"split_conditions":[-1.1438794E0,-9.748456E-1,3.9205518E-1,-4.007247E-2,2.0162599E-1,1.3970427E-1,9.5016676E-1,-2.1519925E-2,-1.2781116E0,4.1634825E-1,-1.5123577E-1,5.189088E-3,1.7317313E-1,1.3193364E-1,-1.2334934E-1,9.6828625E-2,-1.2221411E-4],"split_indices":[8,1,1,0,0,1,2,1,7,6,0,0,0,0,0,0,0],"split_type":[0,0,0,0,0,0,0,0,0,0,0,0,0,0,0,0,0],"sum_hessian":[1.5014195E2,7.90644E0,1.422355E2,1.6637448E0,6.242695E0,8.883065E1,5.340486E1,6.119396E1,2.763669E1,5.1777557E1,1.6273019E0,5.5724617E1,5.4693403E0,1.9016608E0,2.573503E1,3.3882175E1,1.7895382E1],"tree_param":{"num_deleted":"0","num_feature":"9","num_nodes":"17","size_leaf_vector":"1"}},{"base_weights":[-3.4902164E-1,3.4917584E-1,-1.511311E-1,-9.1714725E-2,1.406761E-1],"categories":[],"categories_nodes":[],"categories_segments":[],"categories_sizes":[],"default_left":[0,0,0,0,0],"id":27,"left_children":[1,3,-1,-1,-1],"loss_changes":[5.634797E0,9.91483E-1,0E0,0E0,0E0],"parents":[2147483647,0,0,1,1],"right_children":[2,4,-1,-1,-1],"split_conditions":[-1.6242698E0,-1.8916448E0,-1.511311E-1,-9.1714725E-2,1.406761E-1],"split_indices":[3,3,0,0,0],"split_type":[0,0,0,0,0],"sum_hessian":[4.5563175E1,8.617918E0,3.6945255E1,1.2013556E0,7.4165626E0],"tree_param":{"num_deleted":"0","num_feature":"9","num_nodes":"5","size_leaf_vector":"1"}},{"base_weights":[6.0099795E-2,-1.6996846E-1,1.1418355E-1,-3.200262E-1,1.5114582E-1,1.7584164E-1,-1.0727735E-1,-1.4642575E-1,5.807794E-2,1.7821786E-1,-1.149886E-1,-1.8586527E-1,2.2848545E-1,1.52057E-1,-2.3259944E-1,7.4057564E-2,-1.2132108E-1,-1.3266289E-1,1.13844365E-1,1.6147375E-1,-1.2856868E-1,-1.0630519E-1,7.6099716E-2,-9.8737635E-2,3.155521E-2],"categories":[],"categories_nodes":[],"categories_segments":[],"categories_sizes":[],"default_left":[0,0,0,0,0,0,0,0,0,0,0,0,0,0,0,0,0,0,0,0,0,0,0,0,0],"id":28,"left_children":[1,3,5,7,9,11,13,-1,15,-1,17,19,21,-1,23,-1,-1,-1,-1,-1,-1,-1,-1,-1,-1],"loss_changes":[1.7897553E0,1.3726089E0,1.6000296E0,1.3305107E0,1.2203747E0,1.7744174E0,2.1520731E0,0E0,7.5631344E-1,0E0,1.3392233E0,2.5104177E0,1.5948725E0,0E0,8.3137894E-1,0E0,0E0,0E0,0E0,0E0,0E0,0E0,0E0,0E0,0E0],"parents":[2147483647,0,0,1,1,2,2,3,3,4,4,5,5,6,6,8,8,10,10,11,11,12,12,14,14],"right_children":[2,4,6,8,10,12,14,-1,16,-1,18,20,22,-1,24,-1,-1,-1,-1,-1,-1,-1,-1,-1,-1],"split_conditions":[1.4848131E-1,6.292899E-1,5.8859867E-1,2.8784335E-1,-3.668226E-1,-8.966313E-1,-9.748456E-1,-1.4642575E-1,5.452625E-2,1.7821786E-1,3.4949687E-1,-2.1580596E0,-8.383043E-1,1.52057E-1,2.8784335E-1,7.4057564E-2,-1.2132108E-1,-1.3266289E-1,1.13844365E-1,1.6147375E-1,-1.2856868E-1,-1.0630519E-1,7.6099716E-2,-9.8737635E-2,3.155521E-2],"split_indices":[3,7,7,0,4,7,1,0,7,0,4,7,0,0,0,0,0,0,0,0,0,0,0,0,0],"split_type":[0,0,0,0,0,0,0,0,0,0,0,0,0,0,0,0,0,0,0,0,0,0,0,0,0],"sum_hessian":[1.4127711E2,2.6481995E1,1.1479512E2,1.8050383E1,8.431613E0,8.995599E1,2.483913E1,1.19945135E1,6.055869E0,2.6237454E0,5.807867E0,1.1107508E1,7.884849E1,3.6120079E0,2.1227123E1,4.6156883E0,1.4401808E0,3.5345974E0,2.27327E0,2.5412734E0,8.566234E0,3.480245E0,7.536824E1,1.6229292E1,4.997832E0],"tree_param":{"num_deleted":"0","num_feature":"9","num_nodes":"25","size_leaf_vector":"1"}},{"base_weights":[5.705015E-2,-1.4958844E-1,7.40837E-2,9.630481E-2,-4.0316966E-1,6.8883404E-2,5.986487E-1,-1.8440899E-1,6.0085453E-2,3.476286E-2,-7.432873E-2,5.1512886E-2,2.1891093E-1],"categories":[],"categories_nodes":[],"categories_segments":[],"categories_sizes":[],"default_left":[0,0,0,0,0,0,0,0,0,0,0,0,0],"id":29,"left_children":[1,-1,3,5,7,9,11,-1,-1,-1,-1,-1,-1],"loss_changes":[1.4321936E0,0E0,1.5304784E0,1.821192E0,1.0223881E0,2.1188364E0,3.0318666E-1,0E0,0E0,0E0,0E0,0E0,0E0],"parents":[2147483647,0,0,2,2,3,3,4,4,5,5,6,6],"right_children":[2,-1,4,6,8,10,12,-1,-1,-1,-1,-1,-1],"split_conditions":[-2.138341E0,-1.4958844E-1,9.5016676E-1,8.299914E-1,1.9468991E-1,4.9950904E-1,4.673478E-2,-1.8440899E-1,6.0085453E-2,3.476286E-2,-7.432873E-2,5.1512886E-2,2.1891093E-1],"split_indices":[2,0,2,2,6,2,4,0,0,0,0,0,0],"split_type":[0,0,0,0,0,0,0,0,0,0,0,0,0],"sum_hessian":[1.429683E2,3.3141434E0,1.3965416E2,1.342038E2,5.4503713E0,1.2833548E2,5.868313E0,3.941524E0,1.5088472E0,1.1168544E2,1.665004E1,2.1065745E0,3.7617383E0],"tree_param":{"num_deleted":"0","num_feature":"9","num_nodes":"13","size_leaf_vector":"1"}},{"base_weights":[-3.3994257E-1,3.9393535E-1,-1.4914522E-1,-2.3713797E-2,1.3945475E-1],"categories":[],"categories_nodes":[],"categories_segments":[],"categories_sizes":[],"default_left":[0,0,0,0,0],"id":30,"left_children":[1,3,-1,-1,-1],"loss_changes":[5.134477E0,3.5387397E-1,0E0,0E0,0E0],"parents":[2147483647,0,0,1,1],"right_children":[2,4,-1,-1,-1],"split_conditions":[-2.2143261E0,-2.4067595E0,-1.4914522E-1,-2.3713797E-2,1.3945475E-1],"split_indices":[5,5,0,0,0],"split_type":[0,0,0,0,0],"sum_hessian":[3.8530476E1,7.001208E0,3.1529268E1,1.0439247E0,5.957283E0],"tree_param":{"num_deleted":"0","num_feature":"9","num_nodes":"5","size_leaf_vector":"1"}},{"base_weights":[4.5531478E-2,7.9100244E-2,-2.7479705E-1,2.9505184E-1,1.8425541E-2,9.861939E-3,-4.276004E-1,1.5919186E-1,2.0960414E-1,-1.4047371E-1,1.6138904E-1,-2.9721868E-1,1.407381E-1,-3.7715172E-3,-1.6186173E-1,-5.84657E-2,1.1984031E-1,-1.2065104E-1,-1.3133105E-2,-2.0870116E-2,1.2107529E-1,-1.3524021E-1,2.7712671E-2],"categories":[],"categories_nodes":[],"categories_segments":[],"categories_sizes":[],"default_left":[0,0,0,0,0,0,0,0,0,0,0,0,0,0,0,0,0,0,0,0,0,0,0],"id":31,"left_children":[1,3,5,7,9,11,13,15,-1,17,19,21,-1,-1,-1,-1,-1,-1,-1,-1,-1,-1,-1],"loss_changes":[1.5077577E0,1.643728E0,5.8411634E-1,1.4636996E0,2.278981E0,9.586287E-1,4.4693625E-1,2.0721676E0,0E0,1.218538E0,3.1312094E0,3.0484298E-1,0E0,0E0,0E0,0E0,0E0,0E0,0E0,0E0,0E0,0E0,0E0],"parents":[2147483647,0,0,1,1,2,2,3,3,4,4,5,5,6,6,7,7,9,9,10,10,11,11],"right_children":[2,4,6,8,10,12,14,16,-1,18,20,22,-1,-1,-1,-1,-1,-1,-1,-1,-1,-1,-1],"split_conditions":[9.1778624E-1,-4.3185028E-1,3.486096E-2,-6.061046E-1,1.3898285E-1,2.0081912E-1,1.9513327E-1,-3.6210474E-1,2.0960414E-1,-1.7573437E-1,2.0990716E-1,1.913164E-1,1.407381E-1,-3.7715172E-3,-1.6186173E-1,-5.84657E-2,1.1984031E-1,-1.2065104E-1,-1.3133105E-2,-2.0870116E-2,1.2107529E-1,-1.3524021E-1,2.7712671E-2],"split_indices":[1,2,4,2,2,3,3,0,0,1,3,0,0,0,0,0,0,0,0,0,0,0,0],"split_type":[0,0,0,0,0,0,0,0,0,0,0,0,0,0,0,0,0,0,0,0,0,0,0],"sum_hessian":[1.371955E2,1.2486352E2,1.23319845E1,2.6540064E1,9.832345E1,4.63425E0,7.697734E0,2.1114832E1,5.425233E0,4.6574657E1,5.1748795E1,3.0299406E0,1.6043093E0,2.0493007E0,5.648433E0,8.761619E0,1.2353213E1,1.1243848E1,3.533081E1,2.73073E1,2.4441492E1,2.0049748E0,1.0249659E0],"tree_param":{"num_deleted":"0","num_feature":"9","num_nodes":"23","size_leaf_vector":"1"}},{"base_weights":[5.0119285E-2,1.509241E-2,3.4869716E-1,-1.0556931E-1,1.0494478E-1,5.9702516E-2,4.906805E-1,-4.604063E-1,8.232669E-2,-1.2722446E-1,1.3193347E-1,3.1682745E-1,-1.2701754E-1,1.0209787E-1,1.734919E-1,-1.5963434E-1,-5.347843E-2,9.668972E-2,-5.5275593E-2,1.708314E-1,2.556245E-2,1.3873838E-1,-2.5922006E-2,-6.4135544E-2,1.0352783E-1],"categories":[],"categories_nodes":[],"categories_segments":[],"categories_sizes":[],"default_left":[0,0,0,0,0,0,0,0,0,0,0,0,0,0,0,0,0,0,0,0,0,0,0,0,0],"id":32,"left_children":[1,3,5,7,9,11,13,15,17,-1,19,21,-1,23,-1,-1,-1,-1,-1,-1,-1,-1,-1,-1,-1],"loss_changes":[1.457869E0,1.3799393E0,5.7157564E-1,3.6641214E0,1.1193739E0,8.950715E-1,3.2530928E-1,3.5040426E-1,2.5154624E0,0E0,1.3617227E0,3.2959104E-1,0E0,3.391445E-1,0E0,0E0,0E0,0E0,0E0,0E0,0E0,0E0,0E0,0E0,0E0],"parents":[2147483647,0,0,1,1,2,2,3,3,4,4,5,5,6,6,7,7,8,8,10,10,11,11,13,13],"right_children":[2,4,6,8,10,12,14,16,18,-1,20,22,-1,24,-1,-1,-1,-1,-1,-1,-1,-1,-1,-1,-1],"split_conditions":[9.1778624E-1,5.452625E-2,3.486096E-2,4.9115095E-2,-1.719917E0,2.0081912E-1,1.9513327E-1,4.9023435E-1,-1.377976E-1,-1.2722446E-1,-1.1438794E0,1.913164E-1,-1.2701754E-1,-6.729605E-1,1.734919E-1,-1.5963434E-1,-5.347843E-2,9.668972E-2,-5.5275593E-2,1.708314E-1,2.556245E-2,1.3873838E-1,-2.5922006E-2,-6.4135544E-2,1.0352783E-1],"split_indices":[1,7,4,8,0,3,3,6,6,0,8,0,0,8,0,0,0,0,0,0,0,0,0,0,0],"split_type":[0,0,0,0,0,0,0,0,0,0,0,0,0,0,0,0,0,0,0,0,0,0,0,0,0],"sum_hessian":[1.3890215E2,1.2525834E2,1.3643805E1,5.338855E1,7.186979E1,4.9628487E0,8.680956E0,1.798119E1,3.540736E1,2.7013597E0,6.9168434E1,3.4999764E0,1.4628724E0,2.229706E0,6.4512496E0,1.300848E1,4.9727087E0,1.8374434E1,1.7032925E1,5.1130576E0,6.4055374E1,2.3979392E0,1.1020372E0,1.0365899E0,1.1931162E0],"tree_param":{"num_deleted":"0","num_feature":"9","num_nodes":"25","size_leaf_vector":"1"}},{"base_weights":[-3.232144E-1,3.2365492E-1,-1.468337E-1,-4.4828646E-2,1.2972423E-1],"categories":[],"categories_nodes":[],"categories_segments":[],"categories_sizes":[],"default_left":[0,0,0,0,0],"id":33,"left_children":[1,3,-1,-1,-1],"loss_changes":[4.058607E0,5.200279E-1,0E0,0E0,0E0],"parents":[2147483647,0,0,1,1],"right_children":[2,4,-1,-1,-1],"split_conditions":[-1.6242698E0,-1.8859589E0,-1.468337E-1,-4.4828646E-2,1.2972423E-1],"split_indices":[3,3,0,0,0],"split_type":[0,0,0,0,0],"sum_hessian":[3.266971E1,6.9019966E0,2.5767712E1,1.3310126E0,5.570984E0],"tree_param":{"num_deleted":"0","num_feature":"9","num_nodes":"5","size_leaf_vector":"1"}},{"base_weights":[3.0560723E-2,1.0095292E-1,-1.3596477E-1,3.2128662E-1,3.0302197E-2,-2.551343E-1,4.3859586E-2,4.688323E-1,-1.3359351E-1,2.2574076E-1,-1.020625E-1,-1.0795772E-1,-1.2657413E-1,1.5360847E-1,-3.0257896E-1,-4.5758005E-2,1.6311057E-1,-1.2015899E-1,9.265995E-2,-6.248254E-2,9.898555E-2,3.463972E-2,-6.285695E-2,-9.000336E-2,1.6026388E-1,8.0389015E-2,-4.540517E-2,3.4661334E-2,-1.465012E-1],"categories":[],"categories_nodes":[],"categories_segments":[],"categories_sizes":[],"default_left":[0,0,0,0,0,0,0,0,0,0,0,0,0,0,0,0,0,0,0,0,0,0,0,0,0,0,0,0,0],"id":34,"left_children":[1,3,5,7,9,11,13,15,17,19,21,23,-1,25,27,-1,-1,-1,-1,-1,-1,-1,-1,-1,-1,-1,-1,-1,-1],"loss_changes":[1.5393271E0,1.4232192E0,8.4898156E-1,1.5556924E0,1.8547392E0,5.7200897E-1,6.7137235E-1,1.0336461E0,9.07938E-1,1.5041085E0,1.0933805E0,2.0394776E0,0E0,5.350904E-1,4.1782382E-1,0E0,0E0,0E0,0E0,0E0,0E0,0E0,0E0,0E0,0E0,0E0,0E0,0E0,0E0],"parents":[2147483647,0,0,1,1,2,2,3,3,4,4,5,5,6,6,7,7,8,8,9,9,10,10,11,11,13,13,14,14],"right_children":[2,4,6,8,10,12,14,16,18,20,22,24,-1,26,28,-1,-1,-1,-1,-1,-1,-1,-1,-1,-1,-1,-1,-1,-1],"split_conditions":[3.9906493E-1,-4.3185028E-1,1.913164E-1,-6.697513E-3,5.452625E-2,-2.655778E-1,1.3775387E-1,-1.2589929E0,-6.608878E-2,-8.966313E-1,-3.6853987E-1,-3.556696E-1,-1.2657413E-1,3.6338088E-1,-1.0492234E0,-4.5758005E-2,1.6311057E-1,-1.2015899E-1,9.265995E-2,-6.248254E-2,9.898555E-2,3.463972E-2,-6.285695E-2,-9.000336E-2,1.6026388E-1,8.0389015E-2,-4.540517E-2,3.4661334E-2,-1.465012E-1],"split_indices":[1,2,0,8,7,0,4,8,0,7,0,0,0,5,7,0,0,0,0,0,0,0,0,0,0,0,0,0,0],"split_type":[0,0,0,0,0,0,0,0,0,0,0,0,0,0,0,0,0,0,0,0,0,0,0,0,0,0,0,0,0],"sum_hessian":[1.2914748E2,9.1052376E1,3.8095093E1,2.1246088E1,6.980629E1,2.2659714E1,1.5435381E1,1.6019352E1,5.226736E0,2.7902445E1,4.1903843E1,1.3273218E1,9.386495E0,1.2144659E1,3.2907217E0,1.8999454E0,1.4119406E1,3.2895393E0,1.9371969E0,5.514604E0,2.238784E1,1.4170841E1,2.7733002E1,1.0581086E1,2.6921325E0,8.799453E0,3.3452063E0,1.1827263E0,2.1079953E0],"tree_param":{"num_deleted":"0","num_feature":"9","num_nodes":"29","size_leaf_vector":"1"}},{"base_weights":[4.3325648E-2,-1.3752256E-1,6.0934618E-2,-1.2287483E-1,1.07258886E-1,2.4502867E-1,-3.44189E-1,2.435555E-1,-3.0327007E-2,-8.502678E-2,1.6883607E-1,-1.3207847E-1,6.632791E-2,1.7238908E-1,5.1496763E-2,4.4823393E-2,-7.224045E-2],"categories":[],"categories_nodes":[],"categories_segments":[],"categories_sizes":[],"default_left":[0,0,0,0,0,0,0,0,0,0,0,0,0,0,0,0,0],"id":35,"left_children":[1,-1,3,5,7,9,11,13,15,-1,-1,-1,-1,-1,-1,-1,-1],"loss_changes":[1.2503009E0,0E0,1.1327926E0,2.2773628E0,1.986818E0,2.0730596E0,1.1598096E0,1.1362591E0,2.1631968E0,0E0,0E0,0E0,0E0,0E0,0E0,0E0,0E0],"parents":[2147483647,0,0,2,2,3,3,4,4,5,5,6,6,7,7,8,8],"right_children":[2,-1,4,6,8,10,12,14,16,-1,-1,-1,-1,-1,-1,-1,-1],"split_conditions":[-1.6057229E0,-1.3752256E-1,-4.3185028E-1,-3.6210474E-1,1.3898285E-1,-4.421048E-1,5.842647E-1,-2.8088057E-1,2.0990716E-1,-8.502678E-2,1.6883607E-1,-1.3207847E-1,6.632791E-2,1.7238908E-1,5.1496763E-2,4.4823393E-2,-7.224045E-2],"split_indices":[1,0,2,0,2,1,3,1,3,0,0,0,0,0,0,0,0],"split_type":[0,0,0,0,0,0,0,0,0,0,0,0,0,0,0,0,0],"sum_hessian":[1.3408232E2,3.5926578E0,1.3048965E2,2.5933998E1,1.04555664E2,9.700738E0,1.6233261E1,5.213701E1,5.2418655E1,3.7613668E0,5.9393716E0,1.3838122E1,2.3951383E0,7.24548E0,4.4891525E1,2.8534891E1,2.3883762E1],"tree_param":{"num_deleted":"0","num_feature":"9","num_nodes":"17","size_leaf_vector":"1"}},{"base_weights":[-3.0821586E-1,1.1061259E-1,-1.4523709E-1],"categories":[],"categories_nodes":[],"categories_segments":[],"categories_sizes":[],"default_left":[0,0,0],"id":36,"left_children":[1,-1,-1],"loss_changes":[4.0090017E0,0E0,0E0],"parents":[2147483647,0,0],"right_children":[2,-1,-1],"split_conditions":[-2.2143261E0,1.1061259E-1,-1.4523709E-1],"split_indices":[5,0,0],"split_type":[0,0,0],"sum_hessian":[2.8542334E1,5.9302287E0,2.2612104E1],"tree_param":{"num_deleted":"0","num_feature":"9","num_nodes":"3","size_leaf_vector":"1"}},{"base_weights":[3.3852857E-2,1.4501517E-1,1.4227317E-2,-3.5097516E-1,4.1601796E-2,9.391712E-2,-4.8188552E-1,9.69651E-2,-9.8501876E-2,1.38175115E-2,-1.886236E-1,-4.9899463E-2,4.199092E-2,1.20260544E-1,-4.4477265E-2],"categories":[],"categories_nodes":[],"categories_segments":[],"categories_sizes":[],"default_left":[0,0,0,0,0,0,0,0,0,0,0,0,0,0,0],"id":37,"left_children":[1,-1,3,5,7,-1,9,11,13,-1,-1,-1,-1,-1,-1],"loss_changes":[1.1442832E0,0E0,1.2425536E0,9.176935E-1,9.027892E-1,0E0,6.9137454E-1,1.0605958E0,9.670603E-1,0E0,0E0,0E0,0E0,0E0,0E0],"parents":[2147483647,0,0,2,2,3,3,4,4,6,6,7,7,8,8],"right_children":[2,-1,4,6,8,-1,10,12,14,-1,-1,-1,-1,-1,-1],"split_conditions":[-1.6057229E0,1.4501517E-1,-8.383043E-1,-1.719917E0,5.5299383E-1,9.391712E-2,-8.189149E-2,-1.9268677E-1,-4.499393E-1,1.38175115E-2,-1.886236E-1,-4.9899463E-2,4.199092E-2,1.20260544E-1,-4.4477265E-2],"split_indices":[1,0,0,0,7,0,4,4,4,0,0,0,0,0,0],"split_type":[0,0,0,0,0,0,0,0,0,0,0,0,0,0,0],"sum_hessian":[1.2597343E2,4.1441417E0,1.21829285E2,7.6708846E0,1.141584E2,1.0136006E0,6.657284E0,8.204532E1,3.2113083E1,1.736034E0,4.92125E0,1.177906E1,7.026626E1,2.420021E0,2.9693064E1],"tree_param":{"num_deleted":"0","num_feature":"9","num_nodes":"15","size_leaf_vector":"1"}},{"base_weights":[4.9820382E-2,-1.3046025E-1,6.552241E-2,1.4298788E-1,4.327432E-2,1.8091234E-3,2.5037906E-1,1.0283868E-1,-7.8004994E-3,1.0256761E-1,-1.21036515E-1],"categories":[],"categories_nodes":[],"categories_segments":[],"categories_sizes":[],"default_left":[0,0,0,0,0,0,0,0,0,0,0],"id":38,"left_children":[1,-1,3,-1,5,7,9,-1,-1,-1,-1],"loss_changes":[1.0439725E0,0E0,1.1769598E0,0E0,1.046648E0,1.031749E0,1.5005457E0,0E0,0E0,0E0,0E0],"parents":[2147483647,0,0,2,2,4,4,5,5,6,6],"right_children":[2,-1,4,-1,6,8,10,-1,-1,-1,-1],"split_conditions":[-1.6057229E0,-1.3046025E-1,-1.1438794E0,1.4298788E-1,4.6770966E-1,-8.383043E-1,9.957076E-1,1.0283868E-1,-7.8004994E-3,1.0256761E-1,-1.21036515E-1],"split_indices":[1,0,8,0,8,0,0,0,0,0,0],"split_type":[0,0,0,0,0,0,0,0,0,0,0],"sum_hessian":[1.2931036E2,3.1272957E0,1.26183075E2,5.2518888E0,1.2093118E2,1.0159851E2,1.9332674E1,6.7947145E0,9.4803795E1,1.7205412E1,2.1272619E0],"tree_param":{"num_deleted":"0","num_feature":"9","num_nodes":"11","size_leaf_vector":"1"}},{"base_weights":[-3.0442733E-1,2.9540977E-1,-1.431403E-1,-3.9336976E-2,1.20880105E-1],"categories":[],"categories_nodes":[],"categories_segments":[],"categories_sizes":[],"default_left":[0,0,0,0,0],"id":39,"left_children":[1,3,-1,-1,-1],"loss_changes":[2.9763548E0,3.9220595E-1,0E0,0E0,0E0],"parents":[2147483647,0,0,1,1],"right_children":[2,4,-1,-1,-1],"split_conditions":[-1.6242698E0,-1.8859589E0,-1.431403E-1,-3.9336976E-2,1.20880105E-1],"split_indices":[3,3,0,0,0],"split_type":[0,0,0,0,0],"sum_hessian":[2.4512415E1,5.6384106E0,1.8874004E1,1.1835572E0,4.454853E0],"tree_param":{"num_deleted":"0","num_feature":"9","num_nodes":"5","size_leaf_vector":"1"}},{"base_weights":[9.569993E-3,-1.9377667E-2,9.2496134E-2,7.1463146E-4,-1.9633922E-1,3.6643784E-2,-2.2224917E-1,6.5153666E-2,-6.0744192E-3,-1.1382355E-1,2.9154787E-2],"categories":[],"categories_nodes":[],"categories_segments":[],"categories_sizes":[],"default_left":[0,0,0,0,0,0,0,0,0,0,0],"id":40,"left_children":[1,3,-1,5,-1,7,9,-1,-1,-1,-1],"loss_changes":[1.0858845E0,1.4685576E0,0E0,8.87045E-1,0E0,1.0236682E0,8.648941E-1,0E0,0E0,0E0,0E0],"parents":[2147483647,0,0,1,1,3,3,5,5,6,6],"right_children":[2,4,-1,6,-1,8,10,-1,-1,-1,-1],"split_conditions":[7.7047807E-1,6.932565E-1,9.2496134E-2,4.6770966E-1,-1.9633922E-1,-3.717626E-1,2.4816219E-2,6.5153666E-2,-6.0744192E-3,-1.1382355E-1,2.9154787E-2],"split_indices":[0,0,0,8,0,2,2,0,0,0,0],"split_type":[0,0,0,0,0,0,0,0,0,0,0],"sum_hessian":[1.2060952E2,1.11064354E2,9.545168E0,1.0871314E2,2.351211E0,9.434562E1,1.4367525E1,2.1560984E1,7.278463E1,9.323208E0,5.0443172E0],"tree_param":{"num_deleted":"0","num_feature":"9","num_nodes":"11","size_leaf_vector":"1"}},{"base_weights":[2.6027873E-2,7.741539E-2,-1.2510754E-1,7.6992046E-3,3.5602713E-1,-2.0379156E-1,3.0037066E-1,1.1771471E-1,-1.3984087E-1,2.0886086E-1,1.7581402E-1,1.1410532E-1,-3.4785536E-1,1.4317815E-1,-1.2743776E-2,1.6370054E-2,1.7504841E-1,-1.4485326E-1,4.413562E-3,9.569394E-2,-1.19591735E-1,9.729976E-2,-1.19718224E-1,-1.3919488E-1,-3.6976088E-2],"categories":[],"categories_nodes":[],"categories_segments":[],"categories_sizes":[],"default_left":[0,0,0,0,0,0,0,0,0,0,0,0,0,0,0,0,0,0,0,0,0,0,0,0,0],"id":41,"left_children":[1,3,5,7,9,11,13,15,17,19,-1,21,23,-1,-1,-1,-1,-1,-1,-1,-1,-1,-1,-1,-1],"loss_changes":[9.894659E-1,1.837905E0,1.1456583E0,1.2633555E0,5.5795693E-1,1.318942E0,3.766773E-1,1.2890071E0,1.8398889E0,1.1115667E0,0E0,1.2192569E0,4.9211764E-1,0E0,0E0,0E0,0E0,0E0,0E0,0E0,0E0,0E0,0E0,0E0,0E0],"parents":[2147483647,0,0,1,1,2,2,3,3,4,4,5,5,6,6,7,7,8,8,9,9,11,11,12,12],"right_children":[2,4,6,8,10,12,14,16,18,20,-1,22,24,-1,-1,-1,-1,-1,-1,-1,-1,-1,-1,-1,-1],"split_conditions":[4.1634825E-1,5.042111E-1,6.2119436E-1,1.3970427E-1,2.8446153E-2,-9.16174E-2,-7.252391E-2,-2.1519925E-2,1.887725E-1,-1.377976E-1,1.7581402E-1,1.0751661E0,7.0749384E-1,1.4317815E-1,-1.2743776E-2,1.6370054E-2,1.7504841E-1,-1.4485326E-1,4.413562E-3,9.569394E-2,-1.19591735E-1,9.729976E-2,-1.19718224E-1,-1.3919488E-1,-3.6976088E-2],"split_indices":[6,1,8,1,6,1,0,1,1,6,0,6,1,0,0,0,0,0,0,0,0,0,0,0,0],"split_type":[0,0,0,0,0,0,0,0,0,0,0,0,0,0,0,0,0,0,0,0,0,0,0,0,0],"sum_hessian":[1.25155136E2,9.376268E1,3.1392454E1,7.581848E1,1.79442E1,2.6932783E1,4.459671E0,4.354823E1,3.2270252E1,1.2370553E1,5.5736465E0,8.463919E0,1.8468864E1,2.6037226E0,1.8559487E0,3.9582714E1,3.965517E0,9.128442E0,2.3141811E1,1.0776266E1,1.5942867E0,6.227614E0,2.2363043E0,1.0970825E1,7.4980392E0],"tree_param":{"num_deleted":"0","num_feature":"9","num_nodes":"25","size_leaf_vector":"1"}},{"base_weights":[-2.939788E-1,9.908838E-2,-1.4165747E-1],"categories":[],"categories_nodes":[],"categories_segments":[],"categories_sizes":[],"default_left":[0,0,0],"id":42,"left_children":[1,-1,-1],"loss_changes":[2.836813E0,0E0,0E0],"parents":[2147483647,0,0],"right_children":[2,-1,-1],"split_conditions":[-2.2143261E0,9.908838E-2,-1.4165747E-1],"split_indices":[5,0,0],"split_type":[0,0,0],"sum_hessian":[2.1179834E1,4.718787E0,1.6461046E1],"tree_param":{"num_deleted":"0","num_feature":"9","num_nodes":"3","size_leaf_vector":"1"}},{"base_weights":[1.8646251E-2,1.4761327E-1,4.1238316E-3,-1.3779218E-1,2.8499095E-2,6.780117E-2,-1.6509539E-1,-7.5811376E-3,5.244837E-2,-1.4719571E-1,-8.425087E-3],"categories":[],"categories_nodes":[],"categories_segments":[],"categories_sizes":[],"default_left":[0,0,0,0,0,0,0,0,0,0,0],"id":43,"left_children":[1,-1,3,-1,5,7,9,-1,-1,-1,-1],"loss_changes":[8.433377E-1,0E0,1.3722993E0,0E0,8.6724484E-1,9.898219E-1,8.741478E-1,0E0,0E0,0E0,0E0],"parents":[2147483647,0,0,2,2,4,4,5,5,6,6],"right_children":[2,-1,4,-1,6,8,10,-1,-1,-1,-1],"split_conditions":[-2.1580596E0,1.4761327E-1,-1.2781116E0,-1.3779218E-1,7.0749384E-1,1.3970427E-1,-2.178409E-1,-7.5811376E-3,5.244837E-2,-1.4719571E-1,-8.425087E-3],"split_indices":[7,0,7,0,1,1,6,0,0,0,0],"split_type":[0,0,0,0,0,0,0,0,0,0,0],"sum_hessian":[1.1875416E2,2.4655468E0,1.1628861E2,4.778566E0,1.1151005E2,9.3232475E1,1.8277567E1,5.108058E1,4.2151897E1,4.4758596E0,1.3801708E1],"tree_param":{"num_deleted":"0","num_feature":"9","num_nodes":"11","size_leaf_vector":"1"}},{"base_weights":[3.1472906E-2,4.9724456E-2,-3.7278432E-1,2.2954287E-2,1.5182492E-1,-1.7958854E-1,5.948507E-2,5.6472607E-2,-1.9024754E-1,2.1664608E-2,-1.23827994E-1,-1.5680495E-1,6.776837E-2],"categories":[],"categories_nodes":[],"categories_segments":[],"categories_sizes":[],"default_left":[0,0,0,0,0,0,0,0,0,0,0,0,0],"id":44,"left_children":[1,3,5,7,-1,-1,-1,9,11,-1,-1,-1,-1],"loss_changes":[9.102334E-1,1.4523375E0,8.67197E-1,8.059384E-1,0E0,0E0,0E0,8.505187E-1,2.3645766E0,0E0,0E0,0E0,0E0],"parents":[2147483647,0,0,1,1,2,2,3,3,7,7,8,8],"right_children":[2,4,6,8,-1,-1,-1,10,12,-1,-1,-1,-1],"split_conditions":[9.5016676E-1,8.299914E-1,8.434196E-2,4.9950904E-1,1.5182492E-1,-1.7958854E-1,5.948507E-2,9.957076E-1,2.8341442E-1,2.1664608E-2,-1.23827994E-1,-1.5680495E-1,6.776837E-2],"split_indices":[2,2,4,2,0,0,0,0,7,0,0,0,0],"split_type":[0,0,0,0,0,0,0,0,0,0,0,0,0],"sum_hessian":[1.1985364E2,1.15515305E2,4.3383284E0,1.1027568E2,5.239622E0,3.0113316E0,1.3269969E0,9.592936E1,1.4346321E1,9.334959E1,2.5797737E0,7.7346516E0,6.61167E0],"tree_param":{"num_deleted":"0","num_feature":"9","num_nodes":"13","size_leaf_vector":"1"}},{"base_weights":[-2.8020257E-1,9.374142E-2,-1.3985361E-1],"categories":[],"categories_nodes":[],"categories_segments":[],"categories_sizes":[],"default_left":[0,0,0],"id":45,"left_children":[1,-1,-1],"loss_changes":[2.500943E0,0E0,0E0],"parents":[2147483647,0,0],"right_children":[2,-1,-1],"split_conditions":[-2.2143261E0,9.374142E-2,-1.3985361E-1],"split_indices":[5,0,0],"split_type":[0,0,0],"sum_hessian":[1.8733747E1,4.49096E0,1.4242787E1],"tree_param":{"num_deleted":"0","num_feature":"9","num_nodes":"3","size_leaf_vector":"1"}},{"base_weights":[2.3044577E-2,1.7994179E-1,-1.9284481E-2,5.6385174E-2,1.5739748E-1,-3.3507887E-1,3.4787618E-2,-2.2043811E-1,2.5841165E-1,-1.2816691E-2,-4.3938535E-1,1.6720691E-1,1.3119563E-3,1.06828414E-1,-1.14967234E-1,1.1428109E-1,-5.1916603E-2,-1.18965305E-1,8.279009E-2,-1.5246761E-1,3.410221E-2,7.492961E-2,-1.8044436E-2],"categories":[],"categories_nodes":[],"categories_segments":[],"categories_sizes":[],"default_left":[0,0,0,0,0,0,0,0,0,0,0,0,0,0,0,0,0,0,0,0,0,0,0],"id":46,"left_children":[1,3,5,7,-1,9,11,13,15,17,19,-1,21,-1,-1,-1,-1,-1,-1,-1,-1,-1,-1],"loss_changes":[7.816731E-1,1.076036E0,1.6028223E0,1.1587563E0,0E0,4.5544696E-1,1.4456898E0,1.0389714E0,7.531783E-1,6.2630534E-1,5.3176594E-1,0E0,1.2486098E0,0E0,0E0,0E0,0E0,0E0,0E0,0E0,0E0,0E0,0E0],"parents":[2147483647,0,0,1,1,2,2,3,3,5,5,6,6,7,7,8,8,9,9,10,10,12,12],"right_children":[2,4,6,8,-1,10,12,14,16,18,20,-1,22,-1,-1,-1,-1,-1,-1,-1,-1,-1,-1],"split_conditions":[-4.3185028E-1,-6.061046E-1,-2.2154334E-1,-3.6210474E-1,1.5739748E-1,1.7691056E-1,-1.5544687E-1,-1.719917E0,5.842647E-1,-9.56702E-1,4.8205405E-1,1.6720691E-1,-6.180573E-1,1.06828414E-1,-1.14967234E-1,1.1428109E-1,-5.1916603E-2,-1.18965305E-1,8.279009E-2,-1.5246761E-1,3.410221E-2,7.492961E-2,-1.8044436E-2],"split_indices":[2,2,2,0,0,3,2,0,3,6,4,0,6,0,0,0,0,0,0,0,0,0,0],"split_type":[0,0,0,0,0,0,0,0,0,0,0,0,0,0,0,0,0,0,0,0,0,0,0],"sum_hessian":[1.1617611E2,2.3992882E1,9.218323E1,1.8701025E1,5.2918553E0,1.2716843E1,7.9466385E1,7.851504E0,1.0849522E1,3.3841503E0,9.332692E0,3.7196681E0,7.574672E1,1.5338179E0,6.317686E0,8.40187E0,2.4476519E0,1.2908263E0,2.093324E0,8.187739E0,1.1449534E0,1.4405814E1,6.1340904E1],"tree_param":{"num_deleted":"0","num_feature":"9","num_nodes":"23","size_leaf_vector":"1"}},{"base_weights":[2.5339326E-2,3.797604E-1,6.2825186E-3,-2.3851618E-2,1.442842E-1,-1.4100057E-1,2.2813797E-2,-1.01803124E-1,8.850855E-2,-1.3528004E-1,7.4412203E-3,7.016589E-2,-1.0989396E-2],"categories":[],"categories_nodes":[],"categories_segments":[],"categories_sizes":[],"default_left":[0,0,0,0,0,0,0,0,0,0,0,0,0],"id":47,"left_children":[1,3,5,-1,-1,-1,7,9,11,-1,-1,-1,-1],"loss_changes":[7.993915E-1,3.5685015E-1,9.288143E-1,0E0,0E0,0E0,9.169325E-1,1.7906873E0,1.405726E0,0E0,0E0,0E0,0E0],"parents":[2147483647,0,0,1,1,2,2,6,6,7,7,8,8],"right_children":[2,4,6,-1,-1,-1,8,10,12,-1,-1,-1,-1],"split_conditions":[-1.1438794E0,-9.748456E-1,-1.0496956E0,-2.3851618E-2,1.442842E-1,-1.4100057E-1,2.4577999E-1,1.298515E-1,2.9567644E-1,-1.3528004E-1,7.4412203E-3,7.016589E-2,-1.0989396E-2],"split_indices":[8,1,8,0,0,0,5,4,5,0,0,0,0],"split_type":[0,0,0,0,0,0,0,0,0,0,0,0,0],"sum_hessian":[1.1770913E2,5.0403423E0,1.12668785E2,1.0518434E0,3.9884992E0,2.7663941E0,1.0990239E2,3.774809E1,7.2154305E1,9.155132E0,2.8592957E1,3.2372963E1,3.978134E1],"tree_param":{"num_deleted":"0","num_feature":"9","num_nodes":"13","size_leaf_vector":"1"}},{"base_weights":[-2.8295895E-1,8.185027E-2,-1.3794352E-1],"categories":[],"categories_nodes":[],"categories_segments":[],"categories_sizes":[],"default_left":[0,0,0],"id":48,"left_children":[1,-1,-1],"loss_changes":[1.9616842E0,0E0,0E0],"parents":[2147483647,0,0],"right_children":[2,-1,-1],"split_conditions":[-2.2143261E0,8.185027E-2,-1.3794352E-1],"split_indices":[5,0,0],"split_type":[0,0,0],"sum_hessian":[1.6223257E1,3.952752E0,1.2270506E1],"tree_param":{"num_deleted":"0","num_feature":"9","num_nodes":"3","size_leaf_vector":"1"}},{"base_weights":[2.9854959E-2,-1.4423035E-1,6.721719E-2,2.7463473E-3,-3.5544556E-1,2.0098697E-1,8.843272E-3,1.3410981E-1,-2.7708867E-1,5.327608E-2,-1.388717E-1,-6.94724E-2,2.4650772E-1,-1.0979495E-1,4.4700433E-2,-2.223607E-2,1.3407107E-1,-1.2396972E-1,3.3905283E-2,-6.793803E-2,8.7776124E-2,4.361084E-3,1.19890675E-1],"categories":[],"categories_nodes":[],"categories_segments":[],"categories_sizes":[],"default_left":[0,0,0,0,0,0,0,0,0,0,0,0,0,0,0,0,0,0,0,0,0,0,0],"id":49,"left_children":[1,3,5,7,9,11,13,15,17,-1,-1,-1,19,-1,21,-1,-1,-1,-1,-1,-1,-1,-1],"loss_changes":[7.560096E-1,6.402507E-1,7.412212E-1,5.2001345E-1,6.295421E-1,6.347151E-1,9.439971E-1,6.900764E-1,3.1012353E-1,0E0,0E0,0E0,7.5394285E-1,0E0,6.732647E-1,0E0,0E0,0E0,0E0,0E0,0E0,0E0,0E0],"parents":[2147483647,0,0,1,1,2,2,3,3,4,4,5,5,6,6,7,7,8,8,12,12,14,14],"right_children":[2,4,6,8,10,12,14,16,18,-1,-1,-1,20,-1,22,-1,-1,-1,-1,-1,-1,-1,-1],"split_conditions":[1.4848131E-1,2.1038963E-2,6.059432E-2,-4.506868E-2,-7.575434E-1,-9.3732256E-1,7.048241E-2,3.554135E-1,1.0956016E0,5.327608E-2,-1.388717E-1,-6.94724E-2,-1.0915551E0,-1.0979495E-1,7.7047807E-1,-2.223607E-2,1.3407107E-1,-1.2396972E-1,3.3905283E-2,-6.793803E-2,8.7776124E-2,4.361084E-3,1.19890675E-1],"split_indices":[3,3,4,8,1,7,4,4,8,0,0,0,8,0,0,0,0,0,0,0,0,0,0],"split_type":[0,0,0,0,0,0,0,0,0,0,0,0,0,0,0,0,0,0,0,0,0,0,0],"sum_hessian":[1.1374322E2,1.959272E1,9.41505E1,1.2135253E1,7.457468E0,2.7861027E1,6.6289474E1,8.612857E0,3.5223954E0,1.2599907E0,6.1974773E0,2.2232633E0,2.5637764E1,4.8491874E0,6.1440285E1,5.691124E0,2.9217331E0,2.5071766E0,1.0152187E0,2.247343E0,2.339042E1,5.776995E1,3.670332E0],"tree_param":{"num_deleted":"0","num_feature":"9","num_nodes":"23","size_leaf_vector":"1"}},{"base_weights":[1.4355027E-2,3.0638408E-2,-3.435307E-1,7.2325883E-3,1.3048638E-1,-1.6642421E-1,6.001645E-2,2.2336754E-1,-2.7947517E-2,9.894216E-2,-9.651523E-2,-1.0736093E-1,5.4351147E-3],"categories":[],"categories_nodes":[],"categories_segments":[],"categories_sizes":[],"default_left":[0,0,0,0,0,0,0,0,0,0,0,0,0],"id":50,"left_children":[1,3,5,7,-1,-1,-1,9,11,-1,-1,-1,-1],"loss_changes":[6.8880725E-1,1.0885242E0,7.538858E-1,8.219318E-1,0E0,0E0,0E0,1.0741541E0,1.4769561E0,0E0,0E0,0E0,0E0],"parents":[2147483647,0,0,1,1,2,2,3,3,7,7,8,8],"right_children":[2,4,6,8,-1,-1,-1,10,12,-1,-1,-1,-1],"split_conditions":[9.5016676E-1,8.299914E-1,1.9468991E-1,-8.6434436E-1,1.3048638E-1,-1.6642421E-1,6.001645E-2,6.007922E-1,-6.180573E-1,9.894216E-2,-9.651523E-2,-1.0736093E-1,5.4351147E-3],"split_indices":[2,2,6,6,0,0,0,4,6,0,0,0,0],"split_type":[0,0,0,0,0,0,0,0,0,0,0,0,0],"sum_hessian":[1.1539152E2,1.1124442E2,4.1471E0,1.06276E2,4.96842E0,2.9127896E0,1.2343102E0,1.4128137E1,9.2147865E1,1.2019733E1,2.1084037E0,1.0285837E1,8.186203E1],"tree_param":{"num_deleted":"0","num_feature":"9","num_nodes":"13","size_leaf_vector":"1"}},{"base_weights":[-2.7708027E-1,7.394238E-2,-1.3605945E-1],"categories":[],"categories_nodes":[],"categories_segments":[],"categories_sizes":[],"default_left":[0,0,0],"id":51,"left_children":[1,-1,-1],"loss_changes":[1.6513398E0,0E0,0E0],"parents":[2147483647,0,0],"right_children":[2,-1,-1],"split_conditions":[-2.2143261E0,7.394238E-2,-1.3605945E-1],"split_indices":[5,0,0],"split_type":[0,0,0],"sum_hessian":[1.4380097E1,3.6781976E0,1.07019E1],"tree_param":{"num_deleted":"0","num_feature":"9","num_nodes":"3","size_leaf_vector":"1"}},{"base_weights":[1.2538159E-2,1.2648812E-1,-2.2063663E-3,-2.005593E-1,3.6643557E-2,7.809334E-2,-3.1018528E-1,-1.077374E-1,5.559201E-2,-9.377199E-2,1.0334783E-1,-1.3494981E-2,-1.5076579E-1,1.4664651E-1,9.731472E-3],"categories":[],"categories_nodes":[],"categories_segments":[],"categories_sizes":[],"default_left":[0,0,0,0,0,0,0,0,0,0,0,0,0,0,0],"id":52,"left_children":[1,-1,3,5,7,9,11,-1,13,-1,-1,-1,-1,-1,-1],"loss_changes":[7.027852E-1,0E0,8.587526E-1,5.817241E-1,7.360755E-1,7.666732E-1,6.97302E-1,0E0,8.7815773E-1,0E0,0E0,0E0,0E0,0E0,0E0],"parents":[2147483647,0,0,2,2,3,3,4,4,5,5,6,6,8,8],"right_children":[2,-1,4,6,8,10,12,-1,14,-1,-1,-1,-1,-1,-1],"split_conditions":[-1.6057229E0,1.2648812E-1,1.4848131E-1,-7.0224494E-1,-1.1438794E0,-4.5219654E-1,1.9707562E-1,-1.077374E-1,1.7008288E-1,-9.377199E-2,1.0334783E-1,-1.3494981E-2,-1.5076579E-1,1.4664651E-1,9.731472E-3],"split_indices":[1,0,3,2,8,0,5,0,3,0,0,0,0,0,0],"split_type":[0,0,0,0,0,0,0,0,0,0,0,0,0,0,0],"sum_hessian":[1.1233481E2,2.8489618E0,1.0948585E2,1.7250246E1,9.22356E1,4.951619E0,1.2298626E1,3.297776E0,8.893783E1,1.9551277E0,2.9964914E0,5.9164E0,6.382226E0,3.215658E0,8.572217E1],"tree_param":{"num_deleted":"0","num_feature":"9","num_nodes":"15","size_leaf_vector":"1"}},{"base_weights":[2.4371909E-2,-1.18781865E-1,3.7431628E-2,3.1737936E-1,1.5391156E-2,-9.6421294E-2,4.861153E-1,-1.63391E-2,2.5611088E-1,3.9408435E-3,1.7284378E-1,-5.5555087E-2,1.3410438E-2,1.3152924E-1,-1.0022705E-2],"categories":[],"categories_nodes":[],"categories_segments":[],"categories_sizes":[],"default_left":[0,0,0,0,0,0,0,0,0,0,0,0,0,0,0],"id":53,"left_children":[1,-1,3,5,7,-1,9,11,13,-1,-1,-1,-1,-1,-1],"loss_changes":[6.5263677E-1,0E0,6.79655E-1,1.0388238E0,7.977608E-1,0E0,3.2857537E-1,1.0102031E0,6.992286E-1,0E0,0E0,0E0,0E0,0E0,0E0],"parents":[2147483647,0,0,2,2,3,3,4,4,6,6,7,7,8,8],"right_children":[2,-1,4,6,8,-1,10,12,14,-1,-1,-1,-1,-1,-1],"split_conditions":[-1.6057229E0,-1.18781865E-1,-8.383043E-1,-1.693692E0,5.1068604E-1,-9.6421294E-2,-8.189149E-2,6.059432E-2,8.670406E-1,3.9408435E-3,1.7284378E-1,-5.5555087E-2,1.3410438E-2,1.3152924E-1,-1.0022705E-2],"split_indices":[1,0,0,2,5,0,4,4,5,0,0,0,0,0,0],"split_type":[0,0,0,0,0,0,0,0,0,0,0,0,0,0,0],"sum_hessian":[1.1236508E2,2.4218254E0,1.0994325E2,7.046177E0,1.0289708E2,1.2600257E0,5.7861514E0,9.173698E1,1.1160104E1,1.2561684E0,4.529983E0,2.3652454E1,6.808452E1,6.365876E0,4.7942276E0],"tree_param":{"num_deleted":"0","num_feature":"9","num_nodes":"15","size_leaf_vector":"1"}},{"base_weights":[-2.7376556E-1,6.505883E-2,-1.3376155E-1],"categories":[],"categories_nodes":[],"categories_segments":[],"categories_sizes":[],"default_left":[0,0,0],"id":54,"left_children":[1,-1,-1],"loss_changes":[1.3257053E0,0E0,0E0],"parents":[2147483647,0,0],"right_children":[2,-1,-1],"split_conditions":[-2.2143261E0,6.505883E-2,-1.3376155E-1],"split_indices":[5,0,0],"split_type":[0,0,0],"sum_hessian":[1.2431465E1,3.3006368E0,9.130829E0],"tree_param":{"num_deleted":"0","num_feature":"9","num_nodes":"3","size_leaf_vector":"1"}},{"base_weights":[-3.4583746E-3,1.3015248E-1,-1.6187834E-2,-1.3148648E-1,5.6150267E-3,5.2056085E-2,-1.5041454E-1,-1.1363811E-2,5.1360413E-2,5.3493794E-2,-6.960224E-2],"categories":[],"categories_nodes":[],"categories_segments":[],"categories_sizes":[],"default_left":[0,0,0,0,0,0,0,0,0,0,0],"id":55,"left_children":[1,-1,3,-1,5,7,9,-1,-1,-1,-1],"loss_changes":[6.19824E-1,0E0,9.9765587E-1,0E0,7.4149525E-1,8.9174026E-1,7.291111E-1,0E0,0E0,0E0,0E0],"parents":[2147483647,0,0,2,2,4,4,5,5,6,6],"right_children":[2,-1,4,-1,6,8,10,-1,-1,-1,-1],"split_conditions":[-2.1580596E0,1.3015248E-1,-1.2781116E0,-1.3148648E-1,5.042111E-1,1.3970427E-1,-4.0325013E-1,-1.1363811E-2,5.1360413E-2,5.3493794E-2,-6.960224E-2],"split_indices":[7,0,7,0,1,1,7,0,0,0,0],"split_type":[0,0,0,0,0,0,0,0,0,0,0],"sum_hessian":[1.0630071E2,1.9963809E0,1.0430433E2,4.0557475E0,1.0024859E2,7.776791E1,2.2480679E1,4.51992E1,3.2568707E1,4.4515333E0,1.8029144E1],"tree_param":{"num_deleted":"0","num_feature":"9","num_nodes":"11","size_leaf_vector":"1"}},{"base_weights":[2.019265E-2,-1.2621327E-1,3.1805415E-2,1.3544197E-1,9.355511E-3,-9.162025E-2,6.624236E-2,4.8978455E-2,-8.231792E-2,-1.4131673E-2,5.789118E-2],"categories":[],"categories_nodes":[],"categories_segments":[],"categories_sizes":[],"default_left":[0,0,0,0,0,0,0,0,0,0,0],"id":56,"left_children":[1,-1,3,-1,5,7,9,-1,-1,-1,-1],"loss_changes":[6.0134834E-1,0E0,1.0621037E0,0E0,6.1323684E-1,1.9416301E0,1.0385935E0,0E0,0E0,0E0,0E0],"parents":[2147483647,0,0,2,2,4,4,5,5,6,6],"right_children":[2,-1,4,-1,6,8,10,-1,-1,-1,-1],"split_conditions":[-2.1580596E0,-1.2621327E-1,-1.2781116E0,1.3544197E-1,-2.1769809E-2,-1.377976E-1,-7.895904E-2,4.8978455E-2,-8.231792E-2,-1.4131673E-2,5.789118E-2],"split_indices":[7,0,7,0,7,6,0,0,0,0,0],"split_type":[0,0,0,0,0,0,0,0,0,0,0],"sum_hessian":[1.11004295E2,1.8754961E0,1.091288E2,4.4276786E0,1.0470112E2,3.7509727E1,6.719139E1,1.5912523E1,2.1597204E1,3.627395E1,3.0917446E1],"tree_param":{"num_deleted":"0","num_feature":"9","num_nodes":"11","size_leaf_vector":"1"}},{"base_weights":[-2.5066137E-1,6.366147E-2,-1.3151428E-1],"categories":[],"categories_nodes":[],"categories_segments":[],"categories_sizes":[],"default_left":[0,0,0],"id":57,"left_children":[1,-1,-1],"loss_changes":[1.2391338E0,0E0,0E0],"parents":[2147483647,0,0],"right_children":[2,-1,-1],"split_conditions":[-2.2143261E0,6.366147E-2,-1.3151428E-1],"split_indices":[5,0,0],"split_type":[0,0,0],"sum_hessian":[1.1241454E1,3.3248284E0,7.9166255E0],"tree_param":{"num_deleted":"0","num_feature":"9","num_nodes":"3","size_leaf_vector":"1"}},{"base_weights":[2.5173852E-2,1.6915585E-1,-1.1858461E-2,4.9034912E-2,1.4539753E-1,-2.5032833E-1,3.0550372E-2,-1.9128719E-1,2.1527626E-1,-1.09761044E-1,8.882838E-2,1.4722498E-1,2.136008E-3,6.619573E-2,-1.16151236E-1,9.11588E-2,-5.8324076E-2,-3.359145E-2,3.2470778E-2],"categories":[],"categories_nodes":[],"categories_segments":[],"categories_sizes":[],"default_left":[0,0,0,0,0,0,0,0,0,0,0,0,0,0,0,0,0,0,0],"id":58,"left_children":[1,3,5,7,-1,9,11,13,15,-1,-1,-1,17,-1,-1,-1,-1,-1,-1],"loss_changes":[5.724047E-1,8.4057105E-1,8.7764543E-1,7.274186E-1,0E0,1.0211396E0,9.922828E-1,7.393882E-1,4.870811E-1,0E0,0E0,0E0,9.141044E-1,0E0,0E0,0E0,0E0,0E0,0E0],"parents":[2147483647,0,0,1,1,2,2,3,3,5,5,6,6,7,7,8,8,12,12],"right_children":[2,4,6,8,-1,10,12,14,16,-1,-1,-1,18,-1,-1,-1,-1,-1,-1],"split_conditions":[-4.3185028E-1,-6.061046E-1,-2.2154334E-1,-3.6210474E-1,1.4539753E-1,1.0870663E0,-1.5544687E-1,-9.748456E-1,6.2119436E-1,-1.09761044E-1,8.882838E-2,1.4722498E-1,-2.0204166E-1,6.619573E-2,-1.16151236E-1,9.11588E-2,-5.8324076E-2,-3.359145E-2,3.2470778E-2],"split_indices":[2,2,2,0,0,7,2,1,8,0,0,0,8,0,0,0,0,0,0],"split_type":[0,0,0,0,0,0,0,0,0,0,0,0,0,0,0,0,0,0,0],"sum_hessian":[1.0597677E2,2.0951057E1,8.502571E1,1.6176817E1,4.7742405E0,1.209747E1,7.2928246E1,6.5529995E0,9.623818E0,1.0133862E1,1.9636091E0,3.1860795E0,6.9742165E1,2.1309943E0,4.422005E0,8.009553E0,1.6142656E0,3.3593662E1,3.61485E1],"tree_param":{"num_deleted":"0","num_feature":"9","num_nodes":"19","size_leaf_vector":"1"}},{"base_weights":[1.0472056E-2,9.9376045E-2,-5.5342615E-3,-1.2663126E-1,9.651246E-3,-9.830928E-2,6.427493E-2,-7.437374E-2,4.053348E-2,-9.981269E-3,7.273516E-2],"categories":[],"categories_nodes":[],"categories_segments":[],"categories_sizes":[],"default_left":[0,0,0,0,0,0,0,0,0,0,0],"id":59,"left_children":[1,-1,3,-1,5,7,9,-1,-1,-1,-1],"loss_changes":[5.7424617E-1,0E0,6.827199E-1,0E0,6.0735774E-1,1.3155005E0,1.2478329E0,0E0,0E0,0E0,0E0],"parents":[2147483647,0,0,2,2,4,4,5,5,6,6],"right_children":[2,-1,4,-1,6,8,10,-1,-1,-1,-1],"split_conditions":[-1.1438794E0,9.9376045E-2,-1.0496956E0,-1.2663126E-1,2.4577999E-1,-3.2092251E-3,8.827288E-2,-7.437374E-2,4.053348E-2,-9.981269E-3,7.273516E-2],"split_indices":[8,0,8,0,5,8,4,0,0,0,0],"split_type":[0,0,0,0,0,0,0,0,0,0,0],"sum_hessian":[1.07575134E2,4.0482507E0,1.03526886E2,2.607543E0,1.0091934E2,3.3637344E1,6.7282E1,2.023724E1,1.3400103E1,4.4405403E1,2.2876593E1],"tree_param":{"num_deleted":"0","num_feature":"9","num_nodes":"11","size_leaf_vector":"1"}}]},"name":"gbtree"},"learner_model_param":{"base_score":"5E-1","boost_from_average":"1","num_class":"3","num_feature":"9","num_target":"1"},"objective":{"name":"multi:softprob","softmax_multiclass_param":{"num_class":"3"}}},"version":[2,1,4]}